{"learner":{"attributes":{},"feature_names":["wage_to_revenue","operating_cash_flow_eur_m","debt_to_assets","regulatory_headroom_eur_m","uefa_coefficient_trend","league_position_trend","broadcast_revenue_share","payment_timeliness_score","management_tenure_years"],"feature_types":["float","float","float","float","float","float","float","float","float"],"gradient_booster":{"model":{"cats":{"enc":[],"feature_segments":[],"sorted_idx":[]},"gbtree_model_param":{"num_parallel_tree":"1","num_trees":"250"},"iteration_indptr":[0,1,2,3,4,5,6,7,8,9,10,11,12,13,14,15,16,17,18,19,20,21,22,23,24,25,26,27,28,29,30,31,32,33,34,35,36,37,38,39,40,41,42,43,44,45,46,47,48,49,50,51,52,53,54,55,56,57,58,59,60,61,62,63,64,65,66,67,68,69,70,71,72,73,74,75,76,77,78,79,80,81,82,83,84,85,86,87,88,89,90,91,92,93,94,95,96,97,98,99,100,101,102,103,104,105,106,107,108,109,110,111,112,113,114,115,116,117,118,119,120,121,122,123,124,125,126,127,128,129,130,131,132,133,134,135,136,137,138,139,140,141,142,143,144,145,146,147,148,149,150,151,152,153,154,155,156,157,158,159,160,161,162,163,164,165,166,167,168,169,170,171,172,173,174,175,176,177,178,179,180,181,182,183,184,185,186,187,188,189,190,191,192,193,194,195,196,197,198,199,200,201,202,203,204,205,206,207,208,209,210,211,212,213,214,215,216,217,218,219,220,221,222,223,224,225,226,227,228,229,230,231,232,233,234,235,236,237,238,239,240,241,242,243,244,245,246,247,248,249,250],"tree_info":[0,0,0,0,0,0,0,0,0,0,0,0,0,0,0,0,0,0,0,0,0,0,0,0,0,0,0,0,0,0,0,0,0,0,0,0,0,0,0,0,0,0,0,0,0,0,0,0,0,0,0,0,0,0,0,0,0,0,0,0,0,0,0,0,0,0,0,0,0,0,0,0,0,0,0,0,0,0,0,0,0,0,0,0,0,0,0,0,0,0,0,0,0,0,0,0,0,0,0,0,0,0,0,0,0,0,0,0,0,0,0,0,0,0,0,0,0,0,0,0,0,0,0,0,0,0,0,0,0,0,0,0,0,0,0,0,0,0,0,0,0,0,0,0,0,0,0,0,0,0,0,0,0,0,0,0,0,0,0,0,0,0,0,0,0,0,0,0,0,0,0,0,0,0,0,0,0,0,0,0,0,0,0,0,0,0,0,0,0,0,0,0,0,0,0,0,0,0,0,0,0,0,0,0,0,0,0,0,0,0,0,0,0,0,0,0,0,0,0,0,0,0,0,0,0,0,0,0,0,0,0,0,0,0,0,0,0,0,0,0,0,0,0,0,0,0,0,0,0,0],"trees":[{"base_weights":[7.39239E-2,1.6691082E0,-4.7590256E-1,2.5409372E0,3.8943566E-2,8.934811E-2,-6.397408E-1,4.993502E-2,1.8022965E-1,3.554012E-2,-3.655834E-2,-4.1969698E-2,2.0428998E-2],"categories":[],"categories_nodes":[],"categories_segments":[],"categories_sizes":[],"default_left":[0,0,0,0,0,0,0,0,0,0,0,0,0],"id":0,"left_children":[1,3,5,7,9,-1,11,-1,-1,-1,-1,-1,-1],"loss_changes":[9.18191E1,3.802423E1,3.0045675E1,2.5044304E1,5.8813534E0,0E0,1.5712128E1,0E0,0E0,0E0,0E0,0E0,0E0],"parents":[2147483647,0,0,1,1,2,2,3,3,4,4,6,6],"right_children":[2,4,6,8,10,-1,12,-1,-1,-1,-1,-1,-1],"split_conditions":[2.43E-1,3.32E1,-1.5E0,6.12E-1,2.24E1,8.934811E-2,6.92E-1,4.993502E-2,1.8022965E-1,3.554012E-2,-3.655834E-2,-4.1969698E-2,2.0428998E-2],"split_indices":[7,1,3,0,3,0,0,0,0,0,0,0,0],"split_type":[0,0,0,0,0,0,0,0,0,0,0,0,0],"sum_hessian":[1.0278226E2,2.5824171E1,7.6958084E1,1.6461622E1,9.362548E0,4.526946E0,7.243114E1,7.5106153E0,8.951007E0,5.041372E0,4.321176E0,6.101089E1,1.1420251E1],"tree_param":{"num_deleted":"0","num_feature":"9","num_nodes":"13","size_leaf_vector":"1"}},{"base_weights":[2.7163072E-2,1.0299414E0,-6.6259724E-1,2.7833636E0,5.1909864E-1,6.51337E-2,-8.1795424E-1,6.1907865E-2,1.7766033E-1,6.870987E-2,-1.9240972E-2,8.803384E-3,-4.5161977E-2],"categories":[],"categories_nodes":[],"categories_segments":[],"categories_sizes":[],"default_left":[0,0,0,0,0,0,0,0,0,0,0,0,0],"id":1,"left_children":[1,3,5,7,9,-1,11,-1,-1,-1,-1,-1,-1],"loss_changes":[7.291892E1,3.7028793E1,2.0143106E1,6.855438E0,2.7188488E1,0E0,5.120167E0,0E0,0E0,0E0,0E0,0E0,0E0],"parents":[2147483647,0,0,1,1,2,2,3,3,4,4,6,6],"right_children":[2,4,6,8,10,-1,12,-1,-1,-1,-1,-1,-1],"split_conditions":[3.94E-1,7E0,-1.5E0,4.5E-1,2.28E1,6.51337E-2,-9.3E0,6.1907865E-2,1.7766033E-1,6.870987E-2,-1.9240972E-2,8.803384E-3,-4.5161977E-2],"split_indices":[7,3,3,2,1,0,1,0,0,0,0,0,0],"split_type":[0,0,0,0,0,0,0,0,0,0,0,0,0],"sum_hessian":[1.03436775E2,4.1952602E1,6.1484173E1,8.461316E0,3.3491287E1,3.9632978E0,5.7520878E1,3.681082E0,4.7802343E0,1.6943045E1,1.6548243E1,4.4611034E0,5.3059772E1],"tree_param":{"num_deleted":"0","num_feature":"9","num_nodes":"13","size_leaf_vector":"1"}},{"base_weights":[3.1855894E-4,1.3284312E0,-5.074177E-1,6.082618E-1,2.6295319E0,-7.77237E-1,8.0479383E-1,-1.3285792E-2,9.325175E-2,1.6871716E-1,5.1799633E-2,-8.9177437E-4,-4.9033776E-2,1.0583234E-1,-9.269017E-3],"categories":[],"categories_nodes":[],"categories_segments":[],"categories_sizes":[],"default_left":[0,0,0,0,0,0,0,0,0,0,0,0,0,0,0],"id":2,"left_children":[1,3,5,7,9,11,13,-1,-1,-1,-1,-1,-1,-1,-1],"loss_changes":[7.092097E1,2.5655624E1,2.7564358E1,2.2490295E1,8.447487E0,9.810905E0,1.7886642E1,0E0,0E0,0E0,0E0,0E0,0E0,0E0,0E0],"parents":[2147483647,0,0,1,1,2,2,3,3,4,4,5,5,6,6],"right_children":[2,4,6,8,10,12,14,-1,-1,-1,-1,-1,-1,-1,-1],"split_conditions":[2.43E-1,6.57E-1,6.98E-1,5.82E-1,2.28E1,3.94E-1,1.02E1,-1.3285792E-2,9.325175E-2,1.6871716E-1,5.1799633E-2,-8.9177437E-4,-4.9033776E-2,1.0583234E-1,-9.269017E-3],"split_indices":[7,0,0,2,1,7,3,0,0,0,0,0,0,0,0],"split_type":[0,0,0,0,0,0,0,0,0,0,0,0,0,0,0],"sum_hessian":[1.0317273E2,2.808719E1,7.508553E1,1.9024487E1,9.062705E0,6.261767E1,1.2467867E1,1.1686265E1,7.33822E0,5.414489E0,3.6482162E0,1.3460307E1,4.915736E1,4.8734818E0,7.594385E0],"tree_param":{"num_deleted":"0","num_feature":"9","num_nodes":"15","size_leaf_vector":"1"}},{"base_weights":[4.6799355E-3,1.0110263E0,-5.988998E-1,1.5929322E0,-2.498418E-1,6.0831882E-2,-7.500817E-1,4.7371823E-2,1.3191701E-1,2.4008123E-2,-4.8662722E-2,-4.6615258E-2,-3.0924957E-3],"categories":[],"categories_nodes":[],"categories_segments":[],"categories_sizes":[],"default_left":[0,0,0,0,0,0,0,0,0,0,0,0,0],"id":3,"left_children":[1,3,5,7,9,-1,11,-1,-1,-1,-1,-1,-1],"loss_changes":[6.5123146E1,2.988873E1,1.9308922E1,1.6150208E1,7.626604E0,0E0,7.77932E0,0E0,0E0,0E0,0E0,0E0,0E0],"parents":[2147483647,0,0,1,1,2,2,3,3,4,4,6,6],"right_children":[2,4,6,8,10,-1,12,-1,-1,-1,-1,-1,-1],"split_conditions":[3.27E-1,3.53E1,-1.5E0,6.6E-1,2.42E1,6.0831882E-2,6.81E-1,4.7371823E-2,1.3191701E-1,2.4008123E-2,-4.8662722E-2,-4.6615258E-2,-3.0924957E-3],"split_indices":[7,3,3,0,1,0,0,0,0,0,0,0,0],"split_type":[0,0,0,0,0,0,0,0,0,0,0,0,0],"sum_hessian":[1.0521758E2,3.9194195E1,6.602339E1,2.6637363E1,1.2556829E1,4.5334835E0,6.1489906E1,1.7647224E1,8.990139E0,6.417305E0,6.1395245E0,4.8337048E1,1.3152858E1],"tree_param":{"num_deleted":"0","num_feature":"9","num_nodes":"13","size_leaf_vector":"1"}},{"base_weights":[3.3679236E-2,8.430874E-1,-6.5515035E-1,1.5594305E-1,4.7277164E-1,-9.335412E-1,4.5233715E-1,-1.0709847E-2,5.9701987E-2,6.554533E-3,-5.0676752E-2,7.327854E-2,-1.225091E-2],"categories":[],"categories_nodes":[],"categories_segments":[],"categories_sizes":[],"default_left":[0,0,0,0,0,0,0,0,0,0,0,0,0],"id":4,"left_children":[1,3,5,-1,7,9,11,-1,-1,-1,-1,-1,-1],"loss_changes":[5.8169144E1,3.8934746E1,1.7808529E1,0E0,2.127304E1,3.9984589E0,8.839029E0,0E0,0E0,0E0,0E0,0E0,0E0],"parents":[2147483647,0,0,1,1,2,2,4,4,5,5,6,6],"right_children":[2,4,6,-1,8,10,12,-1,-1,-1,-1,-1,-1],"split_conditions":[3.94E-1,1.5E0,6.98E-1,1.5594305E-1,5.44E-1,-2E-1,1.15E1,-1.0709847E-2,5.9701987E-2,6.554533E-3,-5.0676752E-2,7.327854E-2,-1.225091E-2],"split_indices":[7,3,0,0,2,3,1,0,0,0,0,0,0],"split_type":[0,0,0,0,0,0,0,0,0,0,0,0,0],"sum_hessian":[1.0234031E2,4.694901E1,5.5391304E1,5.531714E0,4.1417294E1,4.4389984E1,1.1001317E1,2.1573109E1,1.9844185E1,3.057618E0,4.1332367E1,4.03581E0,6.965507E0],"tree_param":{"num_deleted":"0","num_feature":"9","num_nodes":"13","size_leaf_vector":"1"}},{"base_weights":[2.2572182E-2,7.729189E-1,-6.380908E-1,1.1909421E-1,1.5050629E0,-8.093264E-1,7.136508E-2,-1.234429E-2,8.835177E-2,1.2175007E-1,1.0909714E-2,1.177626E-2,-4.6115253E-2],"categories":[],"categories_nodes":[],"categories_segments":[],"categories_sizes":[],"default_left":[0,0,0,0,0,0,0,0,0,0,0,0,0],"id":5,"left_children":[1,3,5,7,9,11,-1,-1,-1,-1,-1,-1,-1],"loss_changes":[5.2948208E1,2.3753859E1,2.1249832E1,1.7020006E1,2.7591095E1,6.486168E0,0E0,0E0,0E0,0E0,0E0,0E0,0E0],"parents":[2147483647,0,0,1,1,2,2,3,3,4,4,5,5],"right_children":[2,4,6,8,10,12,-1,-1,-1,-1,-1,-1,-1],"split_conditions":[3.94E-1,5.61E-1,7.62E-1,7.06E-1,2.28E1,-7.6E0,7.136508E-2,-1.234429E-2,8.835177E-2,1.2175007E-1,1.0909714E-2,1.177626E-2,-4.6115253E-2],"split_indices":[7,2,0,0,1,1,0,0,0,0,0,0,0],"split_type":[0,0,0,0,0,0,0,0,0,0,0,0,0],"sum_hessian":[1.04814476E2,4.899668E1,5.58178E1,2.6496895E1,2.2499786E1,5.210599E1,3.7118049E0,2.237743E1,4.1194654E0,1.2543326E1,9.956459E0,4.978554E0,4.712744E1],"tree_param":{"num_deleted":"0","num_feature":"9","num_nodes":"13","size_leaf_vector":"1"}},{"base_weights":[1.1328337E-2,-3.3853874E-1,1.2939622E0,3.1422395E-1,-9.2011946E-1,1.9352572E0,-4.7430154E-2,-2.4379883E-2,5.3116996E-2,-2.8328268E-2,-5.1882215E-2,1.2896574E-1,3.6937974E-3,3.0624425E-2,-2.7368734E-2],"categories":[],"categories_nodes":[],"categories_segments":[],"categories_sizes":[],"default_left":[0,0,0,0,0,0,0,0,0,0,0,0,0,0,0],"id":6,"left_children":[1,3,5,7,9,11,13,-1,-1,-1,-1,-1,-1,-1,-1],"loss_changes":[4.744686E1,3.1835566E1,1.95826E1,2.445097E1,1.2486382E0,1.821526E1,3.0751555E0,0E0,0E0,0E0,0E0,0E0,0E0,0E0,0E0],"parents":[2147483647,0,0,1,1,2,2,3,3,4,4,5,5,6,6],"right_children":[2,4,6,8,10,12,14,-1,-1,-1,-1,-1,-1,-1,-1],"split_conditions":[6.95E-1,3.94E-1,6.02E-1,5.41E-1,5.72E-1,3.42E1,-1.7E0,-2.4379883E-2,5.3116996E-2,-2.8328268E-2,-5.1882215E-2,1.2896574E-1,3.6937974E-3,3.0624425E-2,-2.7368734E-2],"split_indices":[0,7,7,2,7,1,4,0,0,0,0,0,0,0,0],"split_type":[0,0,0,0,0,0,0,0,0,0,0,0,0,0,0],"sum_hessian":[1.0375467E2,8.2096954E1,2.1657719E1,3.8897896E1,4.3199055E1,1.4353062E1,7.3046565E0,1.8943123E1,1.9954773E1,1.2229483E1,3.0969572E1,1.0376861E1,3.9762015E0,3.0515487E0,4.253108E0],"tree_param":{"num_deleted":"0","num_feature":"9","num_nodes":"15","size_leaf_vector":"1"}},{"base_weights":[-3.8139444E-2,1.4708021E0,-2.55174E-1,7.846418E-1,1.330869E-1,-4.4700497E-1,5.667677E-1,8.3691604E-2,-4.9040546E-3,1.5334994E-2,-2.9400667E-2,5.1156428E-2,-3.6624637E-2],"categories":[],"categories_nodes":[],"categories_segments":[],"categories_sizes":[],"default_left":[0,0,0,0,0,0,0,0,0,0,0,0,0],"id":7,"left_children":[1,3,5,7,-1,9,11,-1,-1,-1,-1,-1,-1],"loss_changes":[3.4424767E1,8.715883E0,1.4719694E1,7.8614473E0,0E0,8.145561E0,1.130482E1,0E0,0E0,0E0,0E0,0E0,0E0],"parents":[2147483647,0,0,1,1,2,2,3,3,5,5,6,6],"right_children":[2,4,6,8,-1,10,12,-1,-1,-1,-1,-1,-1],"split_conditions":[1.5E0,7.41E-1,6.95E-1,7.8E0,1.330869E-1,-2.7E0,3.61E1,8.3691604E-2,-4.9040546E-3,1.5334994E-2,-2.9400667E-2,5.1156428E-2,-3.6624637E-2],"split_indices":[3,0,0,1,0,1,1,0,0,0,0,0,0],"split_type":[0,0,0,0,0,0,0,0,0,0,0,0,0],"sum_hessian":[1.029702E2,1.2221679E1,9.074852E1,8.806589E0,3.4150894E0,7.394649E1,1.680203E1,3.9407513E0,4.865838E0,1.1468909E1,6.247758E1,1.2591751E1,4.21028E0],"tree_param":{"num_deleted":"0","num_feature":"9","num_nodes":"13","size_leaf_vector":"1"}},{"base_weights":[-1.7845063E-4,1.514374E0,-2.6560807E-1,1.9576023E0,5.749821E-3,-5.225327E-1,6.8052614E-1,2.1031981E-2,1.2807825E-1,7.738359E-4,-4.405233E-2,6.593435E-2,-1.1501106E-2],"categories":[],"categories_nodes":[],"categories_segments":[],"categories_sizes":[],"default_left":[0,0,0,0,0,0,0,0,0,0,0,0,0],"id":8,"left_children":[1,3,5,7,-1,9,11,-1,-1,-1,-1,-1,-1],"loss_changes":[4.1744987E1,9.379215E0,2.1833652E1,9.781002E0,0E0,1.3525629E1,1.15202E1,0E0,0E0,0E0,0E0,0E0,0E0],"parents":[2147483647,0,0,1,1,2,2,3,3,5,5,6,6],"right_children":[2,4,6,8,-1,10,12,-1,-1,-1,-1,-1,-1],"split_conditions":[1.09E-1,3.54E0,6.95E-1,5.96E-1,5.749821E-3,3.94E-1,6.02E-1,2.1031981E-2,1.2807825E-1,7.738359E-4,-4.405233E-2,6.593435E-2,-1.1501106E-2],"split_indices":[7,5,0,0,0,7,7,0,0,0,0,0,0],"split_type":[0,0,0,0,0,0,0,0,0,0,0,0,0],"sum_hessian":[1.0184086E2,1.4484774E1,8.735609E1,1.0697591E1,3.7871828E0,6.905247E1,1.8303617E1,3.4964077E0,7.201183E0,2.799627E1,4.1056202E1,1.0497897E1,7.8057203E0],"tree_param":{"num_deleted":"0","num_feature":"9","num_nodes":"13","size_leaf_vector":"1"}},{"base_weights":[-8.107749E-3,9.2892265E-1,-3.4777144E-1,1.6124144E0,-1.6262534E-1,1.1685154E0,-5.7438886E-1,4.6101984E-2,1.510476E-1,-3.542798E-2,3.9715942E-2,1.5963314E-2,9.695285E-2,-7.966141E-3,-4.3938946E-2],"categories":[],"categories_nodes":[],"categories_segments":[],"categories_sizes":[],"default_left":[0,0,0,0,0,0,0,0,0,0,0,0,0,0,0],"id":9,"left_children":[1,3,5,7,9,11,13,-1,-1,-1,-1,-1,-1,-1,-1],"loss_changes":[3.286303E1,2.0758757E1,2.6705534E1,1.3731941E1,6.563967E0,6.043066E0,8.272446E0,0E0,0E0,0E0,0E0,0E0,0E0,0E0,0E0],"parents":[2147483647,0,0,1,1,2,2,3,3,4,4,5,5,6,6],"right_children":[2,4,6,8,10,12,14,-1,-1,-1,-1,-1,-1,-1,-1],"split_conditions":[8.9E0,5.12E-1,8.3E-2,7.06E-1,7.04E-1,4.81E-1,1.5E1,4.6101984E-2,1.510476E-1,-3.542798E-2,3.9715942E-2,1.5963314E-2,9.695285E-2,-7.966141E-3,-4.3938946E-2],"split_indices":[3,7,7,0,0,6,1,0,0,0,0,0,0,0,0],"split_type":[0,0,0,0,0,0,0,0,0,0,0,0,0,0,0],"sum_hessian":[1.0123849E2,2.6472889E1,7.47656E1,1.5985874E1,1.0487015E1,9.18082E0,6.5584785E1,1.1838171E1,4.1477036E0,6.8427835E0,3.6442306E0,5.0401635E0,4.140657E0,2.8392372E1,3.719241E1],"tree_param":{"num_deleted":"0","num_feature":"9","num_nodes":"15","size_leaf_vector":"1"}},{"base_weights":[3.328965E-2,6.7093945E-1,-5.889691E-1,1.5821264E0,2.607148E-1,-8.893288E-1,3.8525888E-1,3.5054017E-2,1.0284245E-1,-2.215792E-2,3.8405184E-2,7.086715E-3,-4.888554E-2,5.363542E-2,-1.4921195E-2],"categories":[],"categories_nodes":[],"categories_segments":[],"categories_sizes":[],"default_left":[0,0,0,0,0,0,0,0,0,0,0,0,0,0,0],"id":10,"left_children":[1,3,5,7,9,11,13,-1,-1,-1,-1,-1,-1,-1,-1],"loss_changes":[4.0773705E1,1.8549305E1,1.5569477E1,5.0622253E0,1.3260649E1,3.790619E0,6.4114113E0,0E0,0E0,0E0,0E0,0E0,0E0,0E0,0E0],"parents":[2147483647,0,0,1,1,2,2,3,3,4,4,5,5,6,6],"right_children":[2,4,6,8,10,12,14,-1,-1,-1,-1,-1,-1,-1,-1],"split_conditions":[3.94E-1,9.3E0,6.98E-1,6.12E-1,5.2E-1,-5E-1,1.02E1,3.5054017E-2,1.0284245E-1,-2.215792E-2,3.8405184E-2,7.086715E-3,-4.888554E-2,5.363542E-2,-1.4921195E-2],"split_indices":[7,3,0,0,2,3,3,0,0,0,0,0,0,0,0],"split_type":[0,0,0,0,0,0,0,0,0,0,0,0,0,0,0],"sum_hessian":[1.00764755E2,4.9728268E1,5.1036488E1,1.4551E1,3.5177265E1,3.907622E1,1.1960263E1,5.9622946E0,8.588705E0,1.4788529E1,2.0388737E1,3.0374722E0,3.603875E1,5.6799774E0,6.280286E0],"tree_param":{"num_deleted":"0","num_feature":"9","num_nodes":"15","size_leaf_vector":"1"}},{"base_weights":[1.9623376E-2,4.706683E-1,-7.007056E-1,1.9623679E0,2.0389584E-1,-8.506189E-1,4.1627016E-2,1.1345368E-1,4.865583E-2,2.8668577E-2,-2.9022604E-2,-4.5864504E-2,-3.9305063E-3],"categories":[],"categories_nodes":[],"categories_segments":[],"categories_sizes":[],"default_left":[0,0,0,0,0,0,0,0,0,0,0,0,0],"id":11,"left_children":[1,3,5,7,9,11,-1,-1,-1,-1,-1,-1,-1],"loss_changes":[3.355026E1,2.4859386E1,9.850168E0,6.7845535E-1,1.626047E1,1.8181667E0,0E0,0E0,0E0,0E0,0E0,0E0,0E0],"parents":[2147483647,0,0,1,1,2,2,3,3,4,4,5,5],"right_children":[2,4,6,8,10,12,-1,-1,-1,-1,-1,-1,-1],"split_conditions":[5.2E-1,1.5E0,7.62E-1,7.8E0,3.42E1,6.69E-1,4.1627016E-2,1.1345368E-1,4.865583E-2,2.8668577E-2,-2.9022604E-2,-4.5864504E-2,-3.9305063E-3],"split_indices":[7,3,0,8,1,6,0,0,0,0,0,0,0],"split_type":[0,0,0,0,0,0,0,0,0,0,0,0,0],"sum_hessian":[1.01248024E2,6.247497E1,3.8773056E1,8.513644E0,5.3961327E1,3.5725235E1,3.047822E0,5.5112257E0,3.0024185E0,3.6864758E1,1.7096567E1,3.2712017E1,3.0132165E0],"tree_param":{"num_deleted":"0","num_feature":"9","num_nodes":"13","size_leaf_vector":"1"}},{"base_weights":[-1.291104E-2,9.879309E-1,-1.963967E-1,1.6036729E0,2.857856E-1,-5.3146386E-1,1.818704E-1,3.8388636E-2,1.0520446E-1,-1.1882803E-2,4.500849E-2,-1.2844498E-2,-4.6963036E-2,3.2581616E-2,-2.2717113E-2],"categories":[],"categories_nodes":[],"categories_segments":[],"categories_sizes":[],"default_left":[0,0,0,0,0,0,0,0,0,0,0,0,0,0,0],"id":12,"left_children":[1,3,5,7,9,11,13,-1,-1,-1,-1,-1,-1,-1,-1],"loss_changes":[1.853941E1,6.304761E0,1.0902372E1,1.7800312E0,2.9556901E0,4.849372E0,1.2487295E1,0E0,0E0,0E0,0E0,0E0,0E0,0E0,0E0],"parents":[2147483647,0,0,1,1,2,2,3,3,4,4,5,5,6,6],"right_children":[2,4,6,8,10,12,14,-1,-1,-1,-1,-1,-1,-1,-1],"split_conditions":[1.5E0,-9.5E-1,5.61E-1,5.68E-1,6.95E-1,3.28E1,2.28E1,3.8388636E-2,1.0520446E-1,-1.1882803E-2,4.500849E-2,-1.2844498E-2,-4.6963036E-2,3.2581616E-2,-2.2717113E-2],"split_indices":[3,5,2,2,0,3,1,0,0,0,0,0,0,0,0],"split_type":[0,0,0,0,0,0,0,0,0,0,0,0,0,0,0],"sum_hessian":[9.889855E1,1.4642925E1,8.425563E1,7.1174026E0,7.5255227E0,4.4464336E1,3.979129E1,3.614304E0,3.5030985E0,4.394601E0,3.1309216E0,2.754676E1,1.6917576E1,2.2876026E1,1.6915264E1],"tree_param":{"num_deleted":"0","num_feature":"9","num_nodes":"15","size_leaf_vector":"1"}},{"base_weights":[5.3606365E-2,4.9630043E-1,-7.059269E-1,8.693684E-1,-3.9473408E-1,-8.629936E-1,4.1777294E-2,8.226142E-3,6.340583E-2,1.0071469E-2,-4.6117064E-2,-1.3444613E-2,-4.7786277E-2],"categories":[],"categories_nodes":[],"categories_segments":[],"categories_sizes":[],"default_left":[0,0,0,0,0,0,0,0,0,0,0,0,0],"id":13,"left_children":[1,3,5,7,9,11,-1,-1,-1,-1,-1,-1,-1],"loss_changes":[3.466546E1,2.1971087E1,9.919561E0,1.2768658E1,6.4417877E0,1.6696472E0,0E0,0E0,0E0,0E0,0E0,0E0,0E0],"parents":[2147483647,0,0,1,1,2,2,3,3,4,4,5,5],"right_children":[2,4,6,8,10,12,-1,-1,-1,-1,-1,-1,-1],"split_conditions":[5.2E-1,3.53E1,7.62E-1,4.5E-1,1.44E1,-6.12E0,4.1777294E-2,8.226142E-3,6.340583E-2,1.0071469E-2,-4.6117064E-2,-1.3444613E-2,-4.7786277E-2],"split_indices":[7,3,0,2,1,5,0,0,0,0,0,0,0],"split_type":[0,0,0,0,0,0,0,0,0,0,0,0,0],"sum_hessian":[1.0105513E2,6.406273E1,3.6992397E1,4.517337E1,1.8889357E1,3.39711E1,3.0212986E0,1.6832342E1,2.8341028E1,9.158753E0,9.730604E0,5.1130743E0,2.8858025E1],"tree_param":{"num_deleted":"0","num_feature":"9","num_nodes":"13","size_leaf_vector":"1"}},{"base_weights":[3.049582E-2,3.8489565E-1,-7.50675E-1,7.246044E-1,-4.5943838E-1,-9.1117144E-1,2.7756164E-2,2.0074626E-2,7.885385E-2,-3.5858124E-2,2.8746024E-2,-2.587966E-2,-5.1740933E-2],"categories":[],"categories_nodes":[],"categories_segments":[],"categories_sizes":[],"default_left":[0,0,0,0,0,0,0,0,0,0,0,0,0],"id":14,"left_children":[1,3,5,7,9,11,-1,-1,-1,-1,-1,-1,-1],"loss_changes":[2.8063976E1,2.0318096E1,7.1388454E0,1.315941E1,5.9045377E0,8.544502E-1,0E0,0E0,0E0,0E0,0E0,0E0,0E0],"parents":[2147483647,0,0,1,1,2,2,3,3,4,4,5,5],"right_children":[2,4,6,8,10,12,-1,-1,-1,-1,-1,-1,-1],"split_conditions":[6.02E-1,3.54E1,7.62E-1,7.06E-1,7.15E-1,5.8E0,2.7756164E-2,2.0074626E-2,7.885385E-2,-3.5858124E-2,2.8746024E-2,-2.587966E-2,-5.1740933E-2],"split_indices":[7,3,0,0,2,1,0,0,0,0,0,0,0],"split_type":[0,0,0,0,0,0,0,0,0,0,0,0,0],"sum_hessian":[9.93264E1,6.867663E1,3.0649775E1,4.9074024E1,1.9602606E1,2.756407E1,3.0857048E0,3.6652596E1,1.2421427E1,1.5938084E1,3.6645231E0,7.829197E0,1.9734873E1],"tree_param":{"num_deleted":"0","num_feature":"9","num_nodes":"13","size_leaf_vector":"1"}},{"base_weights":[2.9966142E-2,5.384662E-1,-5.4323876E-1,9.5637076E-2,2.9870114E-1,-8.5372293E-1,3.270569E-1,6.687471E-2,-2.8058E-3,-7.10579E-3,-4.59871E-2,5.0332982E-2,-1.6369784E-2],"categories":[],"categories_nodes":[],"categories_segments":[],"categories_sizes":[],"default_left":[0,0,0,0,0,0,0,0,0,0,0,0,0],"id":15,"left_children":[1,3,5,-1,7,9,11,-1,-1,-1,-1,-1,-1],"loss_changes":[2.9685759E1,1.720203E1,1.3223312E1,0E0,1.7439747E1,1.5410213E0,6.2534876E0,0E0,0E0,0E0,0E0,0E0,0E0],"parents":[2147483647,0,0,1,1,2,2,4,4,5,5,6,6],"right_children":[2,4,6,-1,8,10,12,-1,-1,-1,-1,-1,-1],"split_conditions":[3.94E-1,1.5E0,6.98E-1,9.5637076E-2,8.3E-2,-2E-1,1.02E1,6.687471E-2,-2.8058E-3,-7.10579E-3,-4.59871E-2,5.0332982E-2,-1.6369784E-2],"split_indices":[7,3,0,0,7,3,3,0,0,0,0,0,0],"split_type":[0,0,0,0,0,0,0,0,0,0,0,0,0],"sum_hessian":[9.984319E1,5.2939896E1,4.6903297E1,6.8276863E0,4.611221E1,3.4584187E1,1.2319112E1,1.1035169E1,3.507704E1,3.2037907E0,3.1380396E1,5.7794213E0,6.5396905E0],"tree_param":{"num_deleted":"0","num_feature":"9","num_nodes":"13","size_leaf_vector":"1"}},{"base_weights":[-7.636561E-3,3.8131374E-1,-7.03269E-1,1.4049886E-1,1.3260192E0,-8.6758655E-1,3.5583686E-2,3.2418396E-2,-1.7135588E-2,3.6136254E-3,9.177243E-2,-2.0123707E-2,-4.996011E-2],"categories":[],"categories_nodes":[],"categories_segments":[],"categories_sizes":[],"default_left":[0,0,0,0,0,0,0,0,0,0,0,0,0],"id":16,"left_children":[1,3,5,7,9,11,-1,-1,-1,-1,-1,-1,-1],"loss_changes":[2.6711365E1,1.4221781E1,8.847994E0,1.2881871E1,8.0083065E0,1.5670204E0,0E0,0E0,0E0,0E0,0E0,0E0,0E0],"parents":[2147483647,0,0,1,1,2,2,3,3,4,4,5,5],"right_children":[2,4,6,8,10,12,-1,-1,-1,-1,-1,-1,-1],"split_conditions":[5.2E-1,7.07E-1,7.7E-1,1.5E1,3.95E-1,3.3E0,3.5583686E-2,3.2418396E-2,-1.7135588E-2,3.6136254E-3,9.177243E-2,-2.0123707E-2,-4.996011E-2],"split_indices":[7,0,0,1,2,1,0,0,0,0,0,0,0],"split_type":[0,0,0,0,0,0,0,0,0,0,0,0,0],"sum_hessian":[9.6732735E1,6.2332493E1,3.440024E1,5.058627E1,1.1746224E1,3.1167583E1,3.2326577E0,2.449719E1,2.6089079E1,3.7237198E0,8.022504E0,7.769421E0,2.3398163E1],"tree_param":{"num_deleted":"0","num_feature":"9","num_nodes":"13","size_leaf_vector":"1"}},{"base_weights":[1.0509374E-2,1.3125225E0,-2.0518388E-1,1.17182685E-2,1.9376547E0,5.3174114E-1,-5.260776E-1,5.6889784E-2,1.2556078E-1,6.144747E-2,1.315162E-4,-4.341158E-2,-9.175158E-3],"categories":[],"categories_nodes":[],"categories_segments":[],"categories_sizes":[],"default_left":[0,0,0,0,0,0,0,0,0,0,0,0,0],"id":17,"left_children":[1,3,5,-1,7,9,11,-1,-1,-1,-1,-1,-1],"loss_changes":[2.7642628E1,8.973373E0,2.025793E1,0E0,1.1415176E0,9.6345625E0,6.7981853E0,0E0,0E0,0E0,0E0,0E0,0E0],"parents":[2147483647,0,0,1,1,2,2,4,4,5,5,6,6],"right_children":[2,4,6,-1,8,10,12,-1,-1,-1,-1,-1,-1],"split_conditions":[8.3E-2,4.5E-1,8.9E0,1.17182685E-2,4.71E-1,-1.79E0,5.51E-1,5.6889784E-2,1.2556078E-1,6.144747E-2,1.315162E-4,-4.341158E-2,-9.175158E-3],"split_indices":[7,2,3,0,6,5,2,0,0,0,0,0,0],"split_type":[0,0,0,0,0,0,0,0,0,0,0,0,0],"sum_hessian":[9.647102E1,1.2987571E1,8.348345E1,5.2712393E0,7.7163315E0,2.5125732E1,5.8357723E1,4.4685106E0,3.2478206E0,1.0270131E1,1.4855602E1,2.8429094E1,2.9928629E1],"tree_param":{"num_deleted":"0","num_feature":"9","num_nodes":"13","size_leaf_vector":"1"}},{"base_weights":[2.5419088E-4,3.7596753E-1,-7.011072E-1,1.1245642E0,1.6008347E-2,-8.612284E-1,2.93856E-2,3.4177545E-2,9.7358845E-2,4.0680155E-2,-1.2443565E-2,-4.7072053E-2,-4.1144113E-3],"categories":[],"categories_nodes":[],"categories_segments":[],"categories_sizes":[],"default_left":[0,0,0,0,0,0,0,0,0,0,0,0,0],"id":18,"left_children":[1,3,5,7,9,11,-1,-1,-1,-1,-1,-1,-1],"loss_changes":[2.6607437E1,1.7699345E1,7.774866E0,6.409107E0,9.797145E0,1.9053917E0,0E0,0E0,0E0,0E0,0E0,0E0,0E0],"parents":[2147483647,0,0,1,1,2,2,3,3,4,4,5,5],"right_children":[2,4,6,8,10,12,-1,-1,-1,-1,-1,-1,-1],"split_conditions":[5.2E-1,9.3E0,7.7E-1,7.07E-1,8.3E-2,6.63E-1,2.93856E-2,3.4177545E-2,9.7358845E-2,4.0680155E-2,-1.2443565E-2,-4.7072053E-2,-4.1144113E-3],"split_indices":[7,3,0,0,7,6,0,0,0,0,0,0,0],"split_type":[0,0,0,0,0,0,0,0,0,0,0,0,0],"sum_hessian":[9.897252E1,6.475028E1,3.422223E1,2.0335337E1,4.441495E1,3.0735466E1,3.4867637E0,1.4430117E1,5.9052196E0,1.0556389E1,3.3858562E1,2.7676785E1,3.0586817E0],"tree_param":{"num_deleted":"0","num_feature":"9","num_nodes":"13","size_leaf_vector":"1"}},{"base_weights":[-2.2040494E-3,2.881976E-1,-7.334796E-1,2.792537E-2,1.2040648E0,-8.70801E-1,1.1556822E-2,-1.92753E-2,2.29E-2,-3.2496992E-3,7.857026E-2,-2.0266192E-2,-5.0819196E-2],"categories":[],"categories_nodes":[],"categories_segments":[],"categories_sizes":[],"default_left":[0,0,0,0,0,0,0,0,0,0,0,0,0],"id":19,"left_children":[1,3,5,7,9,11,-1,-1,-1,-1,-1,-1,-1],"loss_changes":[2.0752396E1,1.664075E1,3.8804674E0,1.0043825E1,7.3072643E0,1.2499046E0,0E0,0E0,0E0,0E0,0E0,0E0,0E0],"parents":[2147483647,0,0,1,1,2,2,3,3,4,4,5,5],"right_children":[2,4,6,8,10,12,-1,-1,-1,-1,-1,-1,-1],"split_conditions":[6.02E-1,7.06E-1,7.62E-1,5.61E-1,3.61E-1,5.8E0,1.1556822E-2,-1.92753E-2,2.29E-2,-3.2496992E-3,7.857026E-2,-2.0266192E-2,-5.0819196E-2],"split_indices":[7,0,0,2,2,1,0,0,0,0,0,0,0],"split_type":[0,0,0,0,0,0,0,0,0,0,0,0,0],"sum_hessian":[9.572563E1,6.895024E1,2.6775389E1,5.449444E1,1.4455805E1,2.3523827E1,3.2515614E0,2.7837673E1,2.6656765E1,3.4298155E0,1.102599E1,6.506029E0,1.7017797E1],"tree_param":{"num_deleted":"0","num_feature":"9","num_nodes":"13","size_leaf_vector":"1"}},{"base_weights":[4.442905E-2,7.498997E-1,-2.59573E-1,1.1244015E0,-2.2162782E-1,6.808646E-1,-4.7388467E-1,3.764674E-3,6.651532E-2,2.5762502E-2,-3.3373978E-2,1.3706124E-2,7.6241165E-2,-3.224701E-2,7.4888594E-3],"categories":[],"categories_nodes":[],"categories_segments":[],"categories_sizes":[],"default_left":[0,0,0,0,0,0,0,0,0,0,0,0,0,0,0],"id":20,"left_children":[1,3,5,7,9,11,13,-1,-1,-1,-1,-1,-1,-1,-1],"loss_changes":[2.1685966E1,1.1322657E1,1.4586941E1,4.680683E0,3.4003787E0,4.231807E0,6.3084793E0,0E0,0E0,0E0,0E0,0E0,0E0,0E0,0E0],"parents":[2147483647,0,0,1,1,2,2,3,3,4,4,5,5,6,6],"right_children":[2,4,6,8,10,12,14,-1,-1,-1,-1,-1,-1,-1,-1],"split_conditions":[1.79E-1,3.53E1,1.5E0,3.22E-1,-3.11E0,7.5E-1,6.98E-1,3.764674E-3,6.651532E-2,2.5762502E-2,-3.3373978E-2,1.3706124E-2,7.6241165E-2,-3.224701E-2,7.4888594E-3],"split_indices":[7,3,3,2,5,0,0,0,0,0,0,0,0,0,0],"split_type":[0,0,0,0,0,0,0,0,0,0,0,0,0,0,0],"sum_hessian":[9.920918E1,2.943507E1,6.977411E1,2.1131863E1,8.303207E0,1.2545453E1,5.722866E1,3.6910806E0,1.7440783E1,3.0713708E0,5.2318363E0,9.359492E0,3.18596E0,4.4883945E1,1.2344711E1],"tree_param":{"num_deleted":"0","num_feature":"9","num_nodes":"15","size_leaf_vector":"1"}},{"base_weights":[5.011883E-3,4.3385127E-1,-5.685716E-1,9.94449E-1,1.015831E-1,3.3672035E-2,-7.4473864E-1,6.3636126E-3,7.252565E-2,-7.843953E-3,4.8221108E-2,-4.1372146E-2,5.841831E-3],"categories":[],"categories_nodes":[],"categories_segments":[],"categories_sizes":[],"default_left":[0,0,0,0,0,0,0,0,0,0,0,0,0],"id":21,"left_children":[1,3,5,7,9,-1,11,-1,-1,-1,-1,-1,-1],"loss_changes":[2.4414185E1,1.0476551E1,9.7929945E0,8.128E0,8.350975E0,0E0,2.780531E0,0E0,0E0,0E0,0E0,0E0,0E0],"parents":[2147483647,0,0,1,1,2,2,3,3,4,4,6,6],"right_children":[2,4,6,8,10,-1,12,-1,-1,-1,-1,-1,-1],"split_conditions":[3.94E-1,4.3E0,-1.5E0,4.5E-1,6.98E-1,3.3672035E-2,7.77E-1,6.3636126E-3,7.252565E-2,-7.843953E-3,4.8221108E-2,-4.1372146E-2,5.841831E-3],"split_indices":[7,8,3,2,0,0,2,0,0,0,0,0,0],"split_type":[0,0,0,0,0,0,0,0,0,0,0,0,0],"sum_hessian":[9.7251816E1,5.5786602E1,4.146521E1,2.0018606E1,3.5767998E1,4.8001895E0,3.666502E1,7.3403893E0,1.2678217E1,2.8152992E1,7.615004E0,3.348988E1,3.1751418E0],"tree_param":{"num_deleted":"0","num_feature":"9","num_nodes":"13","size_leaf_vector":"1"}},{"base_weights":[-3.4342494E-3,6.643011E-1,-2.747933E-1,9.630238E-2,4.0436044E-1,3.0524197E-1,-5.7336855E-1,3.9592676E-2,-3.0837331E-2,-9.9895075E-3,6.0893804E-2,-4.610496E-2,-1.0066452E-2],"categories":[],"categories_nodes":[],"categories_segments":[],"categories_sizes":[],"default_left":[0,0,0,0,0,0,0,0,0,0,0,0,0],"id":22,"left_children":[1,3,5,-1,7,9,11,-1,-1,-1,-1,-1,-1],"loss_changes":[1.772714E1,8.493634E0,1.2220863E1,0E0,1.0264533E1,1.14384775E1,5.8169613E0,0E0,0E0,0E0,0E0,0E0,0E0],"parents":[2147483647,0,0,1,1,2,2,4,4,5,5,6,6],"right_children":[2,4,6,-1,8,10,12,-1,-1,-1,-1,-1,-1],"split_conditions":[1.63E-1,-1.127E1,1.05E1,9.630238E-2,3.29E1,7.06E-1,5.66E-1,3.9592676E-2,-3.0837331E-2,-9.9895075E-3,6.0893804E-2,-4.610496E-2,-1.0066452E-2],"split_indices":[7,4,3,0,1,0,2,0,0,0,0,0,0],"split_type":[0,0,0,0,0,0,0,0,0,0,0,0,0],"sum_hessian":[9.582659E1,2.7271456E1,6.855514E1,3.563711E0,2.3707745E1,2.3289272E1,4.5265865E1,1.7348713E1,6.359032E0,1.5495486E1,7.7937856E0,2.26017E1,2.2664165E1],"tree_param":{"num_deleted":"0","num_feature":"9","num_nodes":"13","size_leaf_vector":"1"}},{"base_weights":[1.4400474E-2,3.096975E-1,-6.2151736E-1,1.09468795E-1,1.029773E0,-7.8987175E-1,3.0427126E-2,2.5087101E-2,-1.4682094E-2,6.656758E-2,-2.139223E-3,-6.133807E-3,-4.5195132E-2],"categories":[],"categories_nodes":[],"categories_segments":[],"categories_sizes":[],"default_left":[0,0,0,0,0,0,0,0,0,0,0,0,0],"id":23,"left_children":[1,3,5,7,9,11,-1,-1,-1,-1,-1,-1,-1],"loss_changes":[1.851628E1,9.591012E0,6.9574327E0,8.6513815E0,4.7549114E0,2.0152416E0,0E0,0E0,0E0,0E0,0E0,0E0,0E0],"parents":[2147483647,0,0,1,1,2,2,3,3,4,4,5,5],"right_children":[2,4,6,8,10,12,-1,-1,-1,-1,-1,-1,-1],"split_conditions":[5.12E-1,7.07E-1,7.7E-1,1.5E1,3.75E1,-6.12E0,3.0427126E-2,2.5087101E-2,-1.4682094E-2,6.656758E-2,-2.139223E-3,-6.133807E-3,-4.5195132E-2],"split_indices":[7,0,0,1,1,5,0,0,0,0,0,0,0],"split_type":[0,0,0,0,0,0,0,0,0,0,0,0,0],"sum_hessian":[9.657878E1,6.6303055E1,3.0275724E1,5.277901E1,1.352404E1,2.6945623E1,3.3301017E0,2.662507E1,2.6153942E1,1.0367618E1,3.156423E0,4.236084E0,2.270954E1],"tree_param":{"num_deleted":"0","num_feature":"9","num_nodes":"13","size_leaf_vector":"1"}},{"base_weights":[-1.1537799E-2,2.0617215E-1,-5.9278804E-1,9.502171E-1,1.7640742E-2,3.2858867E-2,-8.194994E-1,-1.3201632E-2,8.452054E-2,4.949365E-2,-6.6509396E-3,-4.2616814E-2,4.6221197E-2,-4.9226996E-2,-7.403442E-3],"categories":[],"categories_nodes":[],"categories_segments":[],"categories_sizes":[],"default_left":[0,0,0,0,0,0,0,0,0,0,0,0,0,0,0],"id":24,"left_children":[1,3,5,7,9,11,13,-1,-1,-1,-1,-1,-1,-1,-1],"loss_changes":[1.2144701E1,9.782894E0,3.7355795E0,1.3122798E1,8.445038E0,7.0352407E0,1.9852209E0,0E0,0E0,0E0,0E0,0E0,0E0,0E0,0E0],"parents":[2147483647,0,0,1,1,2,2,3,3,4,4,5,5,6,6],"right_children":[2,4,6,8,10,12,14,-1,-1,-1,-1,-1,-1,-1,-1],"split_conditions":[3.54E1,-2.7E0,3.5E0,5.31E-1,-1.127E1,5.53E-1,7.15E-1,-1.3201632E-2,8.452054E-2,4.949365E-2,-6.6509396E-3,-4.2616814E-2,4.6221197E-2,-4.9226996E-2,-7.403442E-3],"split_indices":[3,1,8,2,4,2,2,0,0,0,0,0,0,0,0],"split_type":[0,0,0,0,0,0,0,0,0,0,0,0,0,0,0],"sum_hessian":[9.4006386E1,6.885989E1,2.5146494E1,1.3104093E1,5.57558E1,6.9159265E0,1.8230568E1,5.2064576E0,7.897635E0,6.733444E0,4.9022354E1,3.4924393E0,3.423487E0,1.4259251E1,3.9713166E0],"tree_param":{"num_deleted":"0","num_feature":"9","num_nodes":"15","size_leaf_vector":"1"}},{"base_weights":[-9.265821E-3,2.4881259E-1,-7.383704E-1,4.9201894E-1,-4.069499E-1,1.4562532E-2,-4.459837E-2,1.3160455E-2,5.5185657E-2,1.8870844E-2,-3.8589586E-2],"categories":[],"categories_nodes":[],"categories_segments":[],"categories_sizes":[],"default_left":[0,0,0,0,0,0,0,0,0,0,0],"id":25,"left_children":[1,3,5,7,9,-1,-1,-1,-1,-1,-1],"loss_changes":[1.8179876E1,1.1585055E1,4.253789E0,7.060976E0,5.974524E0,0E0,0E0,0E0,0E0,0E0,0E0],"parents":[2147483647,0,0,1,1,2,2,3,3,4,4],"right_children":[2,4,6,8,10,-1,-1,-1,-1,-1,-1],"split_conditions":[5.88E-1,3.54E1,-1.4E0,5.99E-1,-3.67E0,1.4562532E-2,-4.459837E-2,1.3160455E-2,5.5185657E-2,1.8870844E-2,-3.8589586E-2],"split_indices":[7,3,3,6,5,0,0,0,0,0,0],"split_type":[0,0,0,0,0,0,0,0,0,0,0],"sum_hessian":[9.4639725E1,7.0384674E1,2.4255054E1,5.1525E1,1.885967E1,3.0322802E0,2.1222775E1,3.8539314E1,1.2985689E1,5.9764786E0,1.2883192E1],"tree_param":{"num_deleted":"0","num_feature":"9","num_nodes":"11","size_leaf_vector":"1"}},{"base_weights":[2.9285256E-2,2.724953E-1,-6.879402E-1,8.5231465E-1,-1.2318068E-3,-8.7663287E-1,1.9534297E-2,8.426639E-2,2.491895E-2,-2.4509748E-2,1.9771073E-2,-1.4577697E-2,-5.022038E-2],"categories":[],"categories_nodes":[],"categories_segments":[],"categories_sizes":[],"default_left":[0,0,0,0,0,0,0,0,0,0,0,0,0],"id":26,"left_children":[1,3,5,7,9,11,-1,-1,-1,-1,-1,-1,-1],"loss_changes":[1.684915E1,1.1435604E1,5.3231354E0,5.9725075E0,9.879582E0,1.2872639E0,0E0,0E0,0E0,0E0,0E0,0E0,0E0],"parents":[2147483647,0,0,1,1,2,2,3,3,4,4,5,5],"right_children":[2,4,6,8,10,12,-1,-1,-1,-1,-1,-1,-1],"split_conditions":[6.02E-1,8.9E0,7.62E-1,-5.83E0,5.47E-1,5E-1,1.9534297E-2,8.426639E-2,2.491895E-2,-2.4509748E-2,1.9771073E-2,-1.4577697E-2,-5.022038E-2],"split_indices":[7,3,0,5,2,1,0,0,0,0,0,0,0],"split_type":[0,0,0,0,0,0,0,0,0,0,0,0,0],"sum_hessian":[9.451726E1,7.10458E1,2.3471453E1,2.210609E1,4.8939713E1,2.0136145E1,3.3353071E0,5.4701114E0,1.6635979E1,2.1813683E1,2.712603E1,4.1975255E0,1.593862E1],"tree_param":{"num_deleted":"0","num_feature":"9","num_nodes":"13","size_leaf_vector":"1"}},{"base_weights":[-2.8332729E-2,1.984209E-1,-7.1039265E-1,3.2195504E-4,8.8288426E-1,-8.1747246E-1,-1.3021836E-3,-1.1081825E-2,3.167226E-2,5.9028216E-2,-2.494779E-3,-1.76784E-2,-4.930607E-2],"categories":[],"categories_nodes":[],"categories_segments":[],"categories_sizes":[],"default_left":[0,0,0,0,0,0,0,0,0,0,0,0,0],"id":27,"left_children":[1,3,5,7,9,11,-1,-1,-1,-1,-1,-1,-1],"loss_changes":[1.4775396E1,9.734664E0,1.7247801E0,8.105644E0,4.533535E0,1.260726E0,0E0,0E0,0E0,0E0,0E0,0E0,0E0],"parents":[2147483647,0,0,1,1,2,2,3,3,4,4,5,5],"right_children":[2,4,6,8,10,12,-1,-1,-1,-1,-1,-1,-1],"split_conditions":[5.88E-1,7.07E-1,7.62E-1,6.88E-1,3.42E1,5.8E0,-1.3021836E-3,-1.1081825E-2,3.167226E-2,5.9028216E-2,-2.494779E-3,-1.76784E-2,-4.930607E-2],"split_indices":[7,0,0,2,1,1,0,0,0,0,0,0,0],"split_type":[0,0,0,0,0,0,0,0,0,0,0,0,0],"sum_hessian":[9.362357E1,7.079618E1,2.2827394E1,5.568125E1,1.5114924E1,1.9570656E1,3.256738E0,4.1708977E1,1.3972277E1,1.1256859E1,3.858066E0,6.0434213E0,1.3527235E1],"tree_param":{"num_deleted":"0","num_feature":"9","num_nodes":"13","size_leaf_vector":"1"}},{"base_weights":[-1.197996E-2,7.92134E-1,-1.895314E-1,1.1786542E0,8.293197E-2,7.4958986E-1,-3.7992126E-1,7.376152E-2,2.4217337E-2,-1.6592814E-2,2.3790695E-2,6.417121E-2,5.23593E-3,-3.7254166E-2,-5.18448E-3],"categories":[],"categories_nodes":[],"categories_segments":[],"categories_sizes":[],"default_left":[0,0,0,0,0,0,0,0,0,0,0,0,0,0,0],"id":28,"left_children":[1,3,5,7,9,11,13,-1,-1,-1,-1,-1,-1,-1,-1],"loss_changes":[1.3404816E1,4.5580635E0,1.4026188E1,1.5335512E0,1.3095669E0,4.441021E0,6.435172E0,0E0,0E0,0E0,0E0,0E0,0E0,0E0,0E0],"parents":[2147483647,0,0,1,1,2,2,3,3,4,4,5,5,6,6],"right_children":[2,4,6,8,10,12,14,-1,-1,-1,-1,-1,-1,-1,-1],"split_conditions":[1.5E0,4.94E-1,8.3E-2,7.8E0,7.1E-1,-2.94E0,4.35E-1,7.376152E-2,2.4217337E-2,-1.6592814E-2,2.3790695E-2,6.417121E-2,5.23593E-3,-3.7254166E-2,-5.18448E-3],"split_indices":[3,7,7,8,0,4,6,0,0,0,0,0,0,0,0],"split_type":[0,0,0,0,0,0,0,0,0,0,0,0,0,0,0],"sum_hessian":[9.183837E1,1.5984522E1,7.585384E1,9.91748E0,6.0670414E0,1.2290808E1,6.3563038E1,6.161022E0,3.756458E0,3.0268006E0,3.040241E0,6.1825747E0,6.1082325E0,2.6643969E1,3.691907E1],"tree_param":{"num_deleted":"0","num_feature":"9","num_nodes":"15","size_leaf_vector":"1"}},{"base_weights":[-8.77383E-3,8.577963E-1,-1.7661896E-1,1.1971064E0,-1.2548506E-2,4.7155553E-1,-3.955329E-1,8.223357E-2,2.4639955E-2,3.7856556E-2,-3.452171E-2,-4.890789E-3,-3.492437E-2],"categories":[],"categories_nodes":[],"categories_segments":[],"categories_sizes":[],"default_left":[0,0,0,0,0,0,0,0,0,0,0,0,0],"id":29,"left_children":[1,3,5,7,-1,9,11,-1,-1,-1,-1,-1,-1],"loss_changes":[1.3598611E1,6.008417E0,1.1294003E1,2.9060879E0,0E0,7.232306E0,5.2586174E0,0E0,0E0,0E0,0E0,0E0,0E0],"parents":[2147483647,0,0,1,1,2,2,3,3,5,5,6,6],"right_children":[2,4,6,8,-1,10,12,-1,-1,-1,-1,-1,-1],"split_conditions":[8.3E-2,3.29E1,4.2E0,-2.41E0,-1.2548506E-2,7.73E-1,-9.4E-1,8.223357E-2,2.4639955E-2,3.7856556E-2,-3.452171E-2,-4.890789E-3,-3.492437E-2],"split_indices":[7,1,3,4,0,7,4,0,0,0,0,0,0],"split_type":[0,0,0,0,0,0,0,0,0,0,0,0,0],"sum_hessian":[9.145203E1,1.4172091E1,7.727994E1,1.0790313E1,3.3817778E0,1.921951E1,5.806043E1,5.78131E0,5.009003E0,1.5707569E1,3.5119407E0,2.9950539E1,2.810989E1],"tree_param":{"num_deleted":"0","num_feature":"9","num_nodes":"13","size_leaf_vector":"1"}},{"base_weights":[-4.848264E-3,2.1139853E-1,-6.8593276E-1,4.410426E-1,-3.4099072E-1,7.075283E-3,-8.9174455E-1,-5.0884695E-3,3.6071304E-2,1.5745115E-2,-3.260284E-2,-1.8791242E-2,-4.9163442E-2],"categories":[],"categories_nodes":[],"categories_segments":[],"categories_sizes":[],"default_left":[0,0,0,0,0,0,0,0,0,0,0,0,0],"id":30,"left_children":[1,3,5,7,9,-1,11,-1,-1,-1,-1,-1,-1],"loss_changes":[1.367159E1,9.090086E0,3.9354296E0,7.71585E0,4.542589E0,0E0,4.827566E-1,0E0,0E0,0E0,0E0,0E0,0E0],"parents":[2147483647,0,0,1,1,2,2,3,3,4,4,6,6],"right_children":[2,4,6,8,10,-1,12,-1,-1,-1,-1,-1,-1],"split_conditions":[5.88E-1,3.29E1,1E0,6.01E-1,8.9E0,7.075283E-3,-4E0,-5.0884695E-3,3.6071304E-2,1.5745115E-2,-3.260284E-2,-1.8791242E-2,-4.9163442E-2],"split_indices":[7,1,3,0,3,0,1,0,0,0,0,0,0],"split_type":[0,0,0,0,0,0,0,0,0,0,0,0,0],"sum_hessian":[9.0841194E1,6.947291E1,2.1368286E1,4.9214573E1,2.0258339E1,4.318559E0,1.7049726E1,1.6979645E1,3.223493E1,6.513042E0,1.37452965E1,3.338271E0,1.3711455E1],"tree_param":{"num_deleted":"0","num_feature":"9","num_nodes":"13","size_leaf_vector":"1"}},{"base_weights":[-4.9964264E-3,-3.4538296E-1,3.4698176E-1,-5.7878363E-1,3.141299E-1,8.111551E-1,-1.5262046E-1,4.1205785E-3,-3.847052E-2,-2.7145455E-2,4.243443E-2,5.656141E-2,-7.696236E-3,4.8180155E-2,-2.2865517E-2],"categories":[],"categories_nodes":[],"categories_segments":[],"categories_sizes":[],"default_left":[0,0,0,0,0,0,0,0,0,0,0,0,0,0,0],"id":31,"left_children":[1,3,5,7,9,11,13,-1,-1,-1,-1,-1,-1,-1,-1],"loss_changes":[1.1313885E1,7.5704317E0,1.0891718E1,4.576288E0,6.5058537E0,7.658164E0,8.332637E0,0E0,0E0,0E0,0E0,0E0,0E0,0E0,0E0],"parents":[2147483647,0,0,1,1,2,2,3,3,4,4,5,5,6,6],"right_children":[2,4,6,8,10,12,14,-1,-1,-1,-1,-1,-1,-1,-1],"split_conditions":[5.61E-1,7.02E-1,1.5E1,-5.41E0,3.39E-1,8.8E0,-1.042E1,4.1205785E-3,-3.847052E-2,-2.7145455E-2,4.243443E-2,5.656141E-2,-7.696236E-3,4.8180155E-2,-2.2865517E-2],"split_indices":[2,0,1,5,2,8,4,0,0,0,0,0,0,0,0],"split_type":[0,0,0,0,0,0,0,0,0,0,0,0,0,0,0],"sum_hessian":[9.243268E1,4.6999626E1,4.5433052E1,3.48047E1,1.2194928E1,2.3228336E1,2.2204718E1,7.9158816E0,2.6888817E1,4.678475E0,7.5164533E0,1.731393E1,5.914406E0,4.297686E0,1.790703E1],"tree_param":{"num_deleted":"0","num_feature":"9","num_nodes":"15","size_leaf_vector":"1"}},{"base_weights":[4.8040256E-2,9.294421E-1,-1.2310236E-1,7.793829E-2,5.6169623E-1,3.838528E-1,-4.0952328E-1,-2.2271918E-2,4.9425203E-2,9.878168E-4,4.6888877E-2,-3.3883497E-3,-3.7296887E-2],"categories":[],"categories_nodes":[],"categories_segments":[],"categories_sizes":[],"default_left":[0,0,0,0,0,0,0,0,0,0,0,0,0],"id":32,"left_children":[1,3,5,-1,7,9,11,-1,-1,-1,-1,-1,-1],"loss_changes":[1.4188677E1,2.6625319E0,1.1630332E1,0E0,5.2600994E0,5.8386602E0,5.809906E0,0E0,0E0,0E0,0E0,0E0,0E0],"parents":[2147483647,0,0,1,1,2,2,4,4,5,5,6,6],"right_children":[2,4,6,-1,8,10,12,-1,-1,-1,-1,-1,-1],"split_conditions":[8.3E-2,3.6E0,8.9E0,7.793829E-2,6.12E-1,7.06E-1,1.5E1,-2.2271918E-2,4.9425203E-2,9.878168E-4,4.6888877E-2,-3.3883497E-3,-3.7296887E-2],"split_indices":[7,8,3,0,0,0,1,0,0,0,0,0,0],"split_type":[0,0,0,0,0,0,0,0,0,0,0,0,0],"sum_hessian":[9.230254E1,1.4287851E1,7.801469E1,4.0752206E0,1.021263E1,2.804169E1,4.9973E1,3.0267603E0,7.18587E0,1.7544985E1,1.0496707E1,2.5385674E1,2.4587324E1],"tree_param":{"num_deleted":"0","num_feature":"9","num_nodes":"13","size_leaf_vector":"1"}},{"base_weights":[-1.289266E-3,1.9496527E-1,-6.399584E-1,-8.730926E-3,8.1175333E-1,-8.502404E-1,2.4570426E-2,-2.1311384E-2,1.5018317E-2,5.1468816E-2,-5.047435E-3,-1.1667655E-2,-4.9692005E-2],"categories":[],"categories_nodes":[],"categories_segments":[],"categories_sizes":[],"default_left":[0,0,0,0,0,0,0,0,0,0,0,0,0],"id":33,"left_children":[1,3,5,7,9,11,-1,-1,-1,-1,-1,-1,-1],"loss_changes":[1.1575741E1,8.883391E0,5.582246E0,7.1094317E0,3.58988E0,1.4221182E0,0E0,0E0,0E0,0E0,0E0,0E0,0E0],"parents":[2147483647,0,0,1,1,2,2,3,3,4,4,5,5],"right_children":[2,4,6,8,10,12,-1,-1,-1,-1,-1,-1,-1],"split_conditions":[6.02E-1,7.06E-1,7.7E-1,5.31E-1,3.75E1,5E-1,2.4570426E-2,-2.1311384E-2,1.5018317E-2,5.1468816E-2,-5.047435E-3,-1.1667655E-2,-4.9692005E-2],"split_indices":[7,0,0,2,1,1,0,0,0,0,0,0,0],"split_type":[0,0,0,0,0,0,0,0,0,0,0,0,0],"sum_hessian":[9.0358025E1,6.9650185E1,2.0707846E1,5.309969E1,1.6550495E1,1.7671759E1,3.0360863E0,2.2427708E1,3.067198E1,1.3260784E1,3.2897105E0,3.8325593E0,1.3839199E1],"tree_param":{"num_deleted":"0","num_feature":"9","num_nodes":"13","size_leaf_vector":"1"}},{"base_weights":[1.4215518E-2,1.6726923E-1,-8.659239E-1,3.8331482E-1,-4.686157E-1,-2.2487527E-2,-4.8997432E-2,3.9043315E-2,1.446064E-3,6.625473E-3,-3.4513228E-2],"categories":[],"categories_nodes":[],"categories_segments":[],"categories_sizes":[],"default_left":[0,0,0,0,0,0,0,0,0,0,0],"id":34,"left_children":[1,3,5,7,9,-1,-1,-1,-1,-1,-1],"loss_changes":[1.2472327E1,1.1004363E1,2.1025276E-1,8.340949E0,2.8137636E0,0E0,0E0,0E0,0E0,0E0,0E0],"parents":[2147483647,0,0,1,1,2,2,3,3,4,4],"right_children":[2,4,6,8,10,-1,-1,-1,-1,-1,-1],"split_conditions":[7.46E-1,3.54E1,-6.93E0,1.5E1,3.5E0,-2.2487527E-2,-4.8997432E-2,3.9043315E-2,1.446064E-3,6.625473E-3,-3.4513228E-2],"split_indices":[7,3,4,1,8,0,0,0,0,0,0],"split_type":[0,0,0,0,0,0,0,0,0,0,0],"sum_hessian":[9.051223E1,7.779403E1,1.2718206E1,5.8362293E1,1.9431732E1,3.798516E0,8.91969E0,2.6939135E1,3.1423159E1,5.3430943E0,1.4088637E1],"tree_param":{"num_deleted":"0","num_feature":"9","num_nodes":"11","size_leaf_vector":"1"}},{"base_weights":[2.1388315E-2,2.903117E-1,-4.0911162E-1,4.65096E-1,-3.1452432E-1,-7.27287E-1,1.8306391E-1,-3.3366904E-3,3.80291E-2,-3.726378E-2,1.9460244E-2,-7.508182E-3,-4.084119E-2,3.428496E-2,-1.1458139E-2],"categories":[],"categories_nodes":[],"categories_segments":[],"categories_sizes":[],"default_left":[0,0,0,0,0,0,0,0,0,0,0,0,0,0,0],"id":35,"left_children":[1,3,5,7,9,11,13,-1,-1,-1,-1,-1,-1,-1,-1],"loss_changes":[1.1030237E1,6.3408604E0,7.039246E0,7.2580585E0,4.453103E0,1.1197796E0,2.977049E0,0E0,0E0,0E0,0E0,0E0,0E0,0E0,0E0],"parents":[2147483647,0,0,1,1,2,2,3,3,4,4,5,5,6,6],"right_children":[2,4,6,8,10,12,14,-1,-1,-1,-1,-1,-1,-1,-1],"split_conditions":[3.94E-1,7.04E0,6.98E-1,4.99E-1,5.23E-1,-6.12E0,1.15E1,-3.3366904E-3,3.80291E-2,-3.726378E-2,1.9460244E-2,-7.508182E-3,-4.084119E-2,3.428496E-2,-1.1458139E-2],"split_indices":[7,4,0,2,6,5,1,0,0,0,0,0,0,0,0],"split_type":[0,0,0,0,0,0,0,0,0,0,0,0,0,0,0],"sum_hessian":[9.325004E1,5.7596485E1,3.5653557E1,4.486308E1,1.2733405E1,2.3043917E1,1.2609637E1,1.6299898E1,2.8563183E1,7.8620324E0,4.8713727E0,3.4545E0,1.9589418E1,5.3828416E0,7.226796E0],"tree_param":{"num_deleted":"0","num_feature":"9","num_nodes":"15","size_leaf_vector":"1"}},{"base_weights":[-1.7763736E-2,6.6471E-1,-1.6068567E-1,5.9282284E-2,2.9310146E-1,3.1385696E-1,-4.1810083E-1,-1.1778592E-2,3.9112248E-2,-6.7912424E-3,5.0196197E-2,4.8462325E-3,-3.147636E-2],"categories":[],"categories_nodes":[],"categories_segments":[],"categories_sizes":[],"default_left":[0,0,0,0,0,0,0,0,0,0,0,0,0],"id":36,"left_children":[1,3,5,-1,7,9,11,-1,-1,-1,-1,-1,-1],"loss_changes":[8.989888E0,2.7428794E0,9.427986E0,0E0,2.9372652E0,8.619133E0,5.4804897E0,0E0,0E0,0E0,0E0,0E0,0E0],"parents":[2147483647,0,0,1,1,2,2,4,4,5,5,6,6],"right_children":[2,4,6,-1,8,10,12,-1,-1,-1,-1,-1,-1],"split_conditions":[8.3E-2,-4.7E0,8.9E0,5.9282284E-2,5.34E-1,7.06E-1,3.8E0,-1.1778592E-2,3.9112248E-2,-6.7912424E-3,5.0196197E-2,4.8462325E-3,-3.147636E-2],"split_indices":[7,5,3,0,2,0,8,0,0,0,0,0,0],"split_type":[0,0,0,0,0,0,0,0,0,0,0,0,0],"sum_hessian":[9.0070694E1,1.4964085E1,7.5106606E1,5.318217E0,9.645867E0,2.6336407E1,4.8770203E1,4.884754E0,4.761113E0,1.6431803E1,9.904606E0,1.4351681E1,3.441852E1],"tree_param":{"num_deleted":"0","num_feature":"9","num_nodes":"13","size_leaf_vector":"1"}},{"base_weights":[-1.7741852E-3,4.5330405E-1,-2.3393539E-1,6.907307E-2,2.3166172E-1,2.2006239E-1,-4.8343715E-1,2.5886727E-2,-3.0045463E-2,4.370477E-2,-1.5408695E-2,-2.1444615E-3,-3.9972953E-2],"categories":[],"categories_nodes":[],"categories_segments":[],"categories_sizes":[],"default_left":[0,0,0,0,0,0,0,0,0,0,0,0,0],"id":37,"left_children":[1,3,5,-1,7,9,11,-1,-1,-1,-1,-1,-1],"loss_changes":[9.503768E0,5.9316244E0,6.8530445E0,0E0,6.440034E0,7.8047056E0,5.36059E0,0E0,0E0,0E0,0E0,0E0,0E0],"parents":[2147483647,0,0,1,1,2,2,4,4,5,5,6,6],"right_children":[2,4,6,-1,8,10,12,-1,-1,-1,-1,-1,-1],"split_conditions":[1.79E-1,-1.101E1,3.9E0,6.907307E-2,3.29E1,1.21E1,1.52E1,2.5886727E-2,-3.0045463E-2,4.370477E-2,-1.5408695E-2,-2.1444615E-3,-3.9972953E-2],"split_indices":[7,4,8,0,1,1,3,0,0,0,0,0,0],"split_type":[0,0,0,0,0,0,0,0,0,0,0,0,0],"sum_hessian":[8.795021E1,2.9389296E1,5.8560917E1,4.6565437E0,2.4732752E1,2.0810946E1,3.774997E1,1.8689245E1,6.043507E0,9.005763E0,1.1805182E1,1.624269E1,2.150728E1],"tree_param":{"num_deleted":"0","num_feature":"9","num_nodes":"13","size_leaf_vector":"1"}},{"base_weights":[2.8184E-2,3.741914E-1,-2.5830337E-1,5.600171E-2,7.5519913E-1,5.8477914E-1,-3.949565E-1,2.4044795E-2,-2.4239391E-2,7.106444E-2,1.974782E-2,5.5912968E-2,-6.2259394E-3,-8.087929E-5,-3.428112E-2],"categories":[],"categories_nodes":[],"categories_segments":[],"categories_sizes":[],"default_left":[0,0,0,0,0,0,0,0,0,0,0,0,0,0,0],"id":38,"left_children":[1,3,5,7,9,11,13,-1,-1,-1,-1,-1,-1,-1,-1],"loss_changes":[8.944966E0,4.90882E0,5.924966E0,5.5949044E0,3.8790445E0,2.9002552E0,4.929526E0,0E0,0E0,0E0,0E0,0E0,0E0,0E0,0E0],"parents":[2147483647,0,0,1,1,2,2,3,3,4,4,5,5,6,6],"right_children":[2,4,6,8,10,12,14,-1,-1,-1,-1,-1,-1,-1,-1],"split_conditions":[2.43E-1,5.06E-1,-1.5E0,2.13E1,-4.7E0,-1.87E0,-2.72E0,2.4044795E-2,-2.4239391E-2,7.106444E-2,1.974782E-2,5.5912968E-2,-6.2259394E-3,-8.087929E-5,-3.428112E-2],"split_indices":[7,6,3,3,5,5,4,0,0,0,0,0,0,0,0],"split_type":[0,0,0,0,0,0,0,0,0,0,0,0,0,0,0],"sum_hessian":[8.82626E1,3.9839725E1,4.8422882E1,2.2334541E1,1.7505184E1,6.2966084E0,4.2126274E1,1.2569519E1,9.765022E0,5.110498E0,1.2394687E1,3.2646294E0,3.031979E0,1.8328753E1,2.3797522E1],"tree_param":{"num_deleted":"0","num_feature":"9","num_nodes":"15","size_leaf_vector":"1"}},{"base_weights":[2.4203274E-2,4.649193E-1,-2.0837386E-1,-2.6506418E-1,6.913715E-1,-5.887619E-1,8.8627346E-2,1.8254323E-2,-3.7118852E-2,-1.2329103E-2,4.811709E-2,4.542745E-3,-4.133927E-2,2.5640821E-2,-2.3911215E-2],"categories":[],"categories_nodes":[],"categories_segments":[],"categories_sizes":[],"default_left":[0,0,0,0,0,0,0,0,0,0,0,0,0,0,0],"id":39,"left_children":[1,3,5,7,9,11,13,-1,-1,-1,-1,-1,-1,-1,-1],"loss_changes":[9.100172E0,5.250077E0,6.6257334E0,2.6712546E0,6.253476E0,4.223133E0,8.310798E0,0E0,0E0,0E0,0E0,0E0,0E0,0E0,0E0],"parents":[2147483647,0,0,1,1,2,2,3,3,4,4,5,5,6,6],"right_children":[2,4,6,8,10,12,14,-1,-1,-1,-1,-1,-1,-1,-1],"split_conditions":[8.9E0,5.93E-1,5.51E-1,1.5E0,2.4E0,1.33E-1,1.5E1,1.8254323E-2,-3.7118852E-2,-1.2329103E-2,4.811709E-2,4.542745E-3,-4.133927E-2,2.5640821E-2,-2.3911215E-2],"split_indices":[3,0,2,3,8,7,1,0,0,0,0,0,0,0,0],"split_type":[0,0,0,0,0,0,0,0,0,0,0,0,0,0,0],"sum_hessian":[8.6836624E1,2.9651083E1,5.7185543E1,6.980021E0,2.2671062E1,2.4642277E1,3.2543266E1,3.109701E0,3.8703203E0,5.101705E0,1.7569357E1,6.552249E0,1.8090027E1,1.8668495E1,1.3874772E1],"tree_param":{"num_deleted":"0","num_feature":"9","num_nodes":"15","size_leaf_vector":"1"}},{"base_weights":[-4.9567753E-3,-2.0243399E-1,5.0527245E-1,-4.1781586E-2,-8.164973E-1,1.3030545E0,1.8317123E-1,1.5359655E-2,-1.8573562E-2,-4.6794858E-2,-1.9462127E-2,8.412629E-2,2.9667169E-2,2.362633E-2,-3.755903E-2],"categories":[],"categories_nodes":[],"categories_segments":[],"categories_sizes":[],"default_left":[0,0,0,0,0,0,0,0,0,0,0,0,0,0,0],"id":40,"left_children":[1,3,5,7,9,11,13,-1,-1,-1,-1,-1,-1,-1,-1],"loss_changes":[9.095414E0,6.3843784E0,6.2346597E0,6.1687603E0,3.2124233E-1,9.089718E-1,5.521361E0,0E0,0E0,0E0,0E0,0E0,0E0,0E0,0E0],"parents":[2147483647,0,0,1,1,2,2,3,3,4,4,5,5,6,6],"right_children":[2,4,6,8,10,12,14,-1,-1,-1,-1,-1,-1,-1,-1],"split_conditions":[6.98E-1,5.72E-1,-8.96E0,-2.22E0,5.03E0,5.5E0,3.42E1,1.5359655E-2,-1.8573562E-2,-4.6794858E-2,-1.9462127E-2,8.412629E-2,2.9667169E-2,2.362633E-2,-3.755903E-2],"split_indices":[0,7,4,4,4,8,1,0,0,0,0,0,0,0,0],"split_type":[0,0,0,0,0,0,0,0,0,0,0,0,0,0,0],"sum_hessian":[8.825418E1,6.40628E1,2.4191378E1,5.1624695E1,1.24381075E1,6.0819902E0,1.8109388E1,2.5112005E1,2.6512688E1,8.790924E0,3.6471834E0,3.069863E0,3.0121274E0,1.4204677E1,3.9047117E0],"tree_param":{"num_deleted":"0","num_feature":"9","num_nodes":"15","size_leaf_vector":"1"}},{"base_weights":[3.647545E-2,2.1058434E-1,-5.8388966E-1,6.1388624E-1,-3.661944E-2,-7.477902E-1,1.0215561E-2,4.8009455E-3,5.309179E-2,-3.1337287E-2,1.1276774E-2,-1.0948064E-2,-4.823958E-2],"categories":[],"categories_nodes":[],"categories_segments":[],"categories_sizes":[],"default_left":[0,0,0,0,0,0,0,0,0,0,0,0,0],"id":41,"left_children":[1,3,5,7,9,11,-1,-1,-1,-1,-1,-1,-1],"loss_changes":[9.449152E0,6.817607E0,2.6315494E0,5.919573E0,6.8245873E0,1.6362209E0,0E0,0E0,0E0,0E0,0E0,0E0,0E0],"parents":[2147483647,0,0,1,1,2,2,3,3,4,4,5,5],"right_children":[2,4,6,8,10,12,-1,-1,-1,-1,-1,-1,-1],"split_conditions":[6.02E-1,4.3E0,7.62E-1,5.43E-1,6.8E0,5.8E0,1.0215561E-2,4.8009455E-3,5.309179E-2,-3.1337287E-2,1.1276774E-2,-1.0948064E-2,-4.823958E-2],"split_indices":[7,8,0,2,8,1,0,0,0,0,0,0,0],"split_type":[0,0,0,0,0,0,0,0,0,0,0,0,0],"sum_hessian":[8.534478E1,6.715727E1,1.8187511E1,2.4957275E1,4.2199997E1,1.5099046E1,3.088466E0,1.21385E1,1.2818774E1,1.25526E1,2.9647396E1,4.9776425E0,1.0121404E1],"tree_param":{"num_deleted":"0","num_feature":"9","num_nodes":"13","size_leaf_vector":"1"}},{"base_weights":[-3.3706885E-2,6.37197E-1,-1.8645683E-1,8.049441E-1,-8.6300244E-4,-4.1343433E-1,3.0925956E-1,1.1972577E-2,7.060229E-2,-3.5806444E-2,-7.2940276E-3,-3.6969982E-2,3.118189E-2],"categories":[],"categories_nodes":[],"categories_segments":[],"categories_sizes":[],"default_left":[0,0,0,0,0,0,0,0,0,0,0,0,0],"id":42,"left_children":[1,3,5,7,-1,9,11,-1,-1,-1,-1,-1,-1],"loss_changes":[9.156951E0,1.8343492E0,8.297845E0,4.2005014E0,0E0,3.963852E0,8.168032E0,0E0,0E0,0E0,0E0,0E0,0E0],"parents":[2147483647,0,0,1,1,2,2,3,3,5,5,6,6],"right_children":[2,4,6,8,-1,10,12,-1,-1,-1,-1,-1,-1],"split_conditions":[8.3E-2,8.6E0,6.95E-1,6.25E-1,-8.6300244E-4,5.51E-1,3.61E-1,1.1972577E-2,7.060229E-2,-3.5806444E-2,-7.2940276E-3,-3.6969982E-2,3.118189E-2],"split_indices":[7,8,0,0,0,2,2,0,0,0,0,0,0],"split_type":[0,0,0,0,0,0,0,0,0,0,0,0,0],"sum_hessian":[8.719374E1,1.5582265E1,7.161147E1,1.2220122E1,3.3621416E0,4.923421E1,2.2377262E1,7.0488234E0,5.1712995E0,2.231348E1,2.692073E1,4.8493924E0,1.752787E1],"tree_param":{"num_deleted":"0","num_feature":"9","num_nodes":"13","size_leaf_vector":"1"}},{"base_weights":[7.1354344E-2,4.8281854E-1,-1.565567E-1,6.9200665E-1,-1.505497E-1,-5.8855313E-1,8.8744424E-2,7.384809E-2,2.289487E-2,2.9159391E-2,-3.2557566E-2,-6.7003556E-3,-3.951833E-2,2.4692405E-2,-1.7365111E-2],"categories":[],"categories_nodes":[],"categories_segments":[],"categories_sizes":[],"default_left":[0,0,0,0,0,0,0,0,0,0,0,0,0,0,0],"id":43,"left_children":[1,3,5,7,9,11,13,-1,-1,-1,-1,-1,-1,-1,-1],"loss_changes":[8.350529E0,4.304071E0,6.149854E0,3.735444E0,3.5722063E0,1.8178453E0,6.808082E0,0E0,0E0,0E0,0E0,0E0,0E0,0E0,0E0],"parents":[2147483647,0,0,1,1,2,2,3,3,4,4,5,5,6,6],"right_children":[2,4,6,8,10,12,14,-1,-1,-1,-1,-1,-1,-1,-1],"split_conditions":[1.79E-1,3.53E1,6.05E-1,1.9E0,-3.53E0,3.27E-1,1.52E1,7.384809E-2,2.289487E-2,2.9159391E-2,-3.2557566E-2,-6.7003556E-3,-3.951833E-2,2.4692405E-2,-1.7365111E-2],"split_indices":[7,3,0,8,5,7,3,0,0,0,0,0,0,0,0],"split_type":[0,0,0,0,0,0,0,0,0,0,0,0,0,0,0],"sum_hessian":[8.7240395E1,3.0698938E1,5.654146E1,2.3007477E1,7.691463E0,1.9971178E1,3.657028E1,4.0658965E0,1.894158E1,3.0524611E0,4.6390014E0,6.6522593E0,1.331892E1,1.8889067E1,1.768121E1],"tree_param":{"num_deleted":"0","num_feature":"9","num_nodes":"15","size_leaf_vector":"1"}},{"base_weights":[2.1032635E-2,2.874358E-1,-3.1398305E-1,6.5071654E-1,-2.7001182E-2,-4.589233E-2,7.0766094E-3,3.920832E-2,-2.3149902E-3,1.9560246E-2,-2.3459049E-2,2.426266E-2,-2.0576676E-2],"categories":[],"categories_nodes":[],"categories_segments":[],"categories_sizes":[],"default_left":[0,0,0,0,0,0,0,0,0,0,0,0,0],"id":44,"left_children":[1,3,5,7,9,-1,11,-1,-1,-1,-1,-1,-1],"loss_changes":[7.8529315E0,5.611615E0,7.568699E0,2.1534796E0,5.2154694E0,0E0,5.49581E0,0E0,0E0,0E0,0E0,0E0,0E0],"parents":[2147483647,0,0,1,1,2,2,3,3,4,4,6,6],"right_children":[2,4,6,8,10,-1,12,-1,-1,-1,-1,-1,-1],"split_conditions":[3.27E-1,-7.9E-1,6.05E-1,9.3E0,-9.4E-1,-4.589233E-2,1.15E1,3.920832E-2,-2.3149902E-3,1.9560246E-2,-2.3459049E-2,2.426266E-2,-2.0576676E-2],"split_indices":[7,5,0,8,4,0,1,0,0,0,0,0,0],"split_type":[0,0,0,0,0,0,0,0,0,0,0,0,0],"sum_hessian":[8.597756E1,4.797224E1,3.8005318E1,2.1761225E1,2.6211018E1,1.254719E1,2.5458128E1,1.8159416E1,3.6018093E0,1.3529925E1,1.2681091E1,1.1809259E1,1.3648868E1],"tree_param":{"num_deleted":"0","num_feature":"9","num_nodes":"13","size_leaf_vector":"1"}},{"base_weights":[7.1045876E-2,2.3061451E-1,-5.295225E-1,6.64389E-2,7.538433E-1,-7.3831385E-1,1.7892415E-2,-1.4994268E-2,1.6884048E-2,4.9424764E-2,-7.549047E-3,-1.1306009E-2,-4.805931E-2],"categories":[],"categories_nodes":[],"categories_segments":[],"categories_sizes":[],"default_left":[0,0,0,0,0,0,0,0,0,0,0,0,0],"id":45,"left_children":[1,3,5,7,9,11,-1,-1,-1,-1,-1,-1,-1],"loss_changes":[8.481061E0,5.9296293E0,3.7128768E0,5.475034E0,3.6586418E0,1.5400267E0,0E0,0E0,0E0,0E0,0E0,0E0,0E0],"parents":[2147483647,0,0,1,1,2,2,3,3,4,4,5,5],"right_children":[2,4,6,8,10,12,-1,-1,-1,-1,-1,-1,-1],"split_conditions":[6.02E-1,7.06E-1,7.7E-1,4.39E-1,3.75E1,5.8E0,1.7892415E-2,-1.4994268E-2,1.6884048E-2,4.9424764E-2,-7.549047E-3,-1.1306009E-2,-4.805931E-2],"split_indices":[7,0,0,6,1,1,0,0,0,0,0,0,0],"split_type":[0,0,0,0,0,0,0,0,0,0,0,0,0],"sum_hessian":[8.622512E1,6.861136E1,1.7613762E1,5.3082443E1,1.55289135E1,1.4394762E1,3.2189994E0,2.2538122E1,3.0544321E1,1.2257621E1,3.2712934E0,4.9753175E0,9.419445E0],"tree_param":{"num_deleted":"0","num_feature":"9","num_nodes":"13","size_leaf_vector":"1"}},{"base_weights":[-8.759421E-3,1.544492E-1,-6.5586185E-1,3.7056488E-1,-2.6785296E-1,-8.4624356E-1,8.772838E-3,5.8581173E-2,1.1003569E-2,-3.9757293E-2,4.6257675E-3,-1.829139E-2,-4.79551E-2],"categories":[],"categories_nodes":[],"categories_segments":[],"categories_sizes":[],"default_left":[0,0,0,0,0,0,0,0,0,0,0,0,0],"id":46,"left_children":[1,3,5,7,9,11,-1,-1,-1,-1,-1,-1,-1],"loss_changes":[9.25718E0,6.491641E0,2.9421988E0,5.3781295E0,4.6892557E0,4.3717384E-1,0E0,0E0,0E0,0E0,0E0,0E0,0E0],"parents":[2147483647,0,0,1,1,2,2,3,3,4,4,5,5],"right_children":[2,4,6,8,10,12,-1,-1,-1,-1,-1,-1,-1],"split_conditions":[6.02E-1,2.92E1,7.62E-1,-7.6E0,5.58E-1,5E-1,8.772838E-3,5.8581173E-2,1.1003569E-2,-3.9757293E-2,4.6257675E-3,-1.829139E-2,-4.79551E-2],"split_indices":[7,3,0,1,2,1,0,0,0,0,0,0,0],"split_type":[0,0,0,0,0,0,0,0,0,0,0,0,0],"sum_hessian":[8.5693016E1,6.904116E1,1.6651857E1,4.575055E1,2.3290607E1,1.3534375E1,3.117483E0,6.1625943E0,3.9587955E1,8.965605E0,1.4325003E1,3.3814967E0,1.0152878E1],"tree_param":{"num_deleted":"0","num_feature":"9","num_nodes":"13","size_leaf_vector":"1"}},{"base_weights":[2.537269E-2,3.856277E-1,-1.7418134E-1,1.573072E-1,9.9411064E-1,-4.7163734E-1,1.9849773E-1,-3.6062453E-2,1.7894013E-2,6.2687665E-2,2.0782491E-2,-1.0852244E-2,-4.6837937E-2,1.9716376E-2,-4.0565163E-2],"categories":[],"categories_nodes":[],"categories_segments":[],"categories_sizes":[],"default_left":[0,0,0,0,0,0,0,0,0,0,0,0,0,0,0],"id":47,"left_children":[1,3,5,7,9,11,13,-1,-1,-1,-1,-1,-1,-1,-1],"loss_changes":[6.2734885E0,4.162254E0,6.3287153E0,4.4505534E0,7.245121E-1,3.535749E0,5.396064E0,0E0,0E0,0E0,0E0,0E0,0E0,0E0,0E0],"parents":[2147483647,0,0,1,1,2,2,3,3,4,4,5,5,6,6],"right_children":[2,4,6,8,10,12,14,-1,-1,-1,-1,-1,-1,-1,-1],"split_conditions":[9.3E0,7.37E-1,5.06E-1,3.11E-1,5.88E-1,4.61E0,6.02E-1,-3.6062453E-2,1.7894013E-2,6.2687665E-2,2.0782491E-2,-1.0852244E-2,-4.6837937E-2,1.9716376E-2,-4.0565163E-2],"split_indices":[3,0,6,6,7,4,7,0,0,0,0,0,0,0,0],"split_type":[0,0,0,0,0,0,0,0,0,0,0,0,0,0,0],"sum_hessian":[8.533037E1,3.0085163E1,5.5245205E1,2.279161E1,7.2935514E0,3.0575588E1,2.4669617E1,3.7536814E0,1.903793E1,4.228286E0,3.0652654E0,2.0707573E1,9.868015E0,2.1173046E1,3.4965706E0],"tree_param":{"num_deleted":"0","num_feature":"9","num_nodes":"15","size_leaf_vector":"1"}},{"base_weights":[-1.0734535E-2,-7.0712216E-2,5.686583E-2,3.7458062E-2,-7.9541975E-1,3.0495545E-2,-6.3997353E-3,-1.6297339E-2,-4.7013264E-2],"categories":[],"categories_nodes":[],"categories_segments":[],"categories_sizes":[],"default_left":[0,0,0,0,0,0,0,0,0],"id":48,"left_children":[1,3,-1,5,7,-1,-1,-1,-1],"loss_changes":[6.0078015E0,6.5166755E0,0E0,6.988143E0,4.2739725E-1,0E0,0E0,0E0,0E0],"parents":[2147483647,0,0,1,1,3,3,4,4],"right_children":[2,4,-1,6,8,-1,-1,-1,-1],"split_conditions":[8.21E-1,7.35E-1,5.686583E-2,-2.7E0,-2.81E0,3.0495545E-2,-6.3997353E-3,-1.6297339E-2,-4.7013264E-2],"split_indices":[0,7,0,1,5,0,0,0,0],"split_type":[0,0,0,0,0,0,0,0,0],"sum_hessian":[8.5081894E1,8.174946E1,3.3324337E0,7.1957375E1,9.792088E0,1.5531916E1,5.6425457E1,3.0751677E0,6.7169194E0],"tree_param":{"num_deleted":"0","num_feature":"9","num_nodes":"9","size_leaf_vector":"1"}},{"base_weights":[3.6968358E-2,-5.0844956E-2,5.530693E-2,1.0708662E-1,-7.417079E-1,3.5785545E-2,-2.5502983E-3,-1.385649E-2,-4.753006E-2],"categories":[],"categories_nodes":[],"categories_segments":[],"categories_sizes":[],"default_left":[0,0,0,0,0,0,0,0,0],"id":49,"left_children":[1,3,-1,5,7,-1,-1,-1,-1],"loss_changes":[8.051312E0,8.769834E0,0E0,6.3583555E0,1.1870356E0,0E0,0E0,0E0,0E0],"parents":[2147483647,0,0,1,1,3,3,4,4],"right_children":[2,4,-1,6,8,-1,-1,-1,-1],"split_conditions":[7.88E-1,6.02E-1,5.530693E-2,-4.5E0,5.8E0,3.5785545E-2,-2.5502983E-3,-1.385649E-2,-4.753006E-2],"split_indices":[0,7,0,1,1,0,0,0,0],"split_type":[0,0,0,0,0,0,0,0,0],"sum_hessian":[8.415595E1,7.8648796E1,5.5071554E0,6.470272E1,1.3946075E1,1.2614047E1,5.2088676E1,5.0473766E0,8.898699E0],"tree_param":{"num_deleted":"0","num_feature":"9","num_nodes":"9","size_leaf_vector":"1"}},{"base_weights":[-1.8805115E-2,1.761534E-1,-3.730104E-1,5.666975E-1,-7.550687E-2,-5.0008374E-1,2.7956435E-2,4.507416E-2,-9.603816E-3,-3.6402073E-2,9.61091E-3,1.5121968E-2,-3.1946298E-2],"categories":[],"categories_nodes":[],"categories_segments":[],"categories_sizes":[],"default_left":[0,0,0,0,0,0,0,0,0,0,0,0,0],"id":50,"left_children":[1,3,5,7,9,11,-1,-1,-1,-1,-1,-1,-1],"loss_changes":[5.9978714E0,5.5552483E0,3.9299693E0,5.786196E0,6.2527814E0,3.2739325E0,0E0,0E0,0E0,0E0,0E0,0E0,0E0],"parents":[2147483647,0,0,1,1,2,2,3,3,4,4,5,5],"right_children":[2,4,6,8,10,12,-1,-1,-1,-1,-1,-1,-1],"split_conditions":[3.85E-1,4.3E0,7.88E-1,3.33E1,6.9E0,-1.5E0,2.7956435E-2,4.507416E-2,-9.603816E-3,-3.6402073E-2,9.61091E-3,1.5121968E-2,-3.1946298E-2],"split_indices":[7,8,0,1,8,3,0,0,0,0,0,0,0],"split_type":[0,0,0,0,0,0,0,0,0,0,0,0,0],"sum_hessian":[8.49045E1,5.5086796E1,2.9817705E1,2.1096277E1,3.3990517E1,2.6648388E1,3.1693175E0,1.4507298E1,6.5889797E0,9.388434E0,2.4602083E1,3.7565904E0,2.2891798E1],"tree_param":{"num_deleted":"0","num_feature":"9","num_nodes":"13","size_leaf_vector":"1"}},{"base_weights":[1.1000893E-2,-1.7236544E-1,5.094741E-1,3.7294146E-2,-6.75566E-1,5.9414864E-2,1.1893043E-1,2.6707012E-2,-1.2437996E-2,-3.1566077E-3,-3.9564107E-2,-1.1096402E-2,3.837664E-2],"categories":[],"categories_nodes":[],"categories_segments":[],"categories_sizes":[],"default_left":[0,0,0,0,0,0,0,0,0,0,0,0,0],"id":51,"left_children":[1,3,5,7,9,-1,11,-1,-1,-1,-1,-1,-1],"loss_changes":[7.7691197E0,6.5857263E0,5.9172173E0,6.5062037E0,1.249877E0,0E0,3.6231947E0,0E0,0E0,0E0,0E0,0E0,0E0],"parents":[2147483647,0,0,1,1,2,2,3,3,4,4,6,6],"right_children":[2,4,6,8,10,-1,12,-1,-1,-1,-1,-1,-1],"split_conditions":[7.06E-1,3.94E-1,-6.07E0,4.3E0,-3.4E0,5.9414864E-2,8.3E0,2.6707012E-2,-1.2437996E-2,-3.1566077E-3,-3.9564107E-2,-1.1096402E-2,3.837664E-2],"split_indices":[0,7,4,8,1,0,8,0,0,0,0,0,0],"split_type":[0,0,0,0,0,0,0,0,0,0,0,0,0],"sum_hessian":[8.303758E1,6.1184654E1,2.1852926E1,4.3843185E1,1.7341469E1,7.2349052E0,1.4618021E1,1.5702431E1,2.8140755E1,3.0014904E0,1.4339978E1,1.0013492E1,4.60453E0],"tree_param":{"num_deleted":"0","num_feature":"9","num_nodes":"13","size_leaf_vector":"1"}},{"base_weights":[-2.6159355E-2,5.230057E-1,-1.5478615E-1,5.739624E-2,2.891028E-1,-3.3620705E-3,-6.120915E-1,3.062144E-2,-2.6138682E-2,6.3590617E-3,-3.7574783E-2,-4.496798E-4,-4.3202605E-2],"categories":[],"categories_nodes":[],"categories_segments":[],"categories_sizes":[],"default_left":[0,0,0,0,0,0,0,0,0,0,0,0,0],"id":52,"left_children":[1,3,5,-1,7,9,11,-1,-1,-1,-1,-1,-1],"loss_changes":[6.1222544E0,2.0739274E0,4.8498573E0,0E0,3.8147945E0,5.3345428E0,2.6399078E0,0E0,0E0,0E0,0E0,0E0,0E0],"parents":[2147483647,0,0,1,1,2,2,4,4,5,5,6,6],"right_children":[2,4,6,-1,8,10,12,-1,-1,-1,-1,-1,-1],"split_conditions":[8.3E-2,1.8E0,3.54E1,5.739624E-2,3.09E1,7.73E-1,3.5E0,3.062144E-2,-2.6138682E-2,6.3590617E-3,-3.7574783E-2,-4.496798E-4,-4.3202605E-2],"split_indices":[7,8,3,0,1,7,8,0,0,0,0,0,0],"split_type":[0,0,0,0,0,0,0,0,0,0,0,0,0],"sum_hessian":[8.452559E1,1.5458841E1,6.906675E1,3.145991E0,1.231285E1,5.2642864E1,1.6423883E1,8.981624E0,3.3312268E0,4.5528507E1,7.1143565E0,5.144824E0,1.127906E1],"tree_param":{"num_deleted":"0","num_feature":"9","num_nodes":"13","size_leaf_vector":"1"}},{"base_weights":[-2.9660959E-2,1.6096738E-1,-4.0570217E-1,-1.9469355E-1,4.1802642E-1,1.6097762E-2,-5.44653E-1,-2.5173694E-2,1.0428747E-2,3.8273763E-2,-5.2323933E-3,-6.5825838E-3,-3.5126507E-2],"categories":[],"categories_nodes":[],"categories_segments":[],"categories_sizes":[],"default_left":[0,0,0,0,0,0,0,0,0,0,0,0,0],"id":53,"left_children":[1,3,5,7,9,-1,11,-1,-1,-1,-1,-1,-1],"loss_changes":[5.9965224E0,5.166749E0,3.018351E0,3.0957785E0,6.0012007E0,0E0,1.4711761E0,0E0,0E0,0E0,0E0,0E0,0E0],"parents":[2147483647,0,0,1,1,2,2,3,3,4,4,6,6],"right_children":[2,4,6,8,10,-1,12,-1,-1,-1,-1,-1,-1],"split_conditions":[3.94E-1,5.35E-1,-1.5E0,5.12E-1,1.95E1,1.6097762E-2,-3.67E0,-2.5173694E-2,1.0428747E-2,3.8273763E-2,-5.2323933E-3,-6.5825838E-3,-3.5126507E-2],"split_indices":[7,2,3,6,1,0,5,0,0,0,0,0,0],"split_type":[0,0,0,0,0,0,0,0,0,0,0,0,0],"sum_hessian":[8.1741035E1,5.462279E1,2.7118248E1,2.3018097E1,3.1604694E1,4.136932E0,2.2981316E1,1.2895559E1,1.0122537E1,1.8705584E1,1.2899111E1,6.862674E0,1.611864E1],"tree_param":{"num_deleted":"0","num_feature":"9","num_nodes":"13","size_leaf_vector":"1"}},{"base_weights":[1.4049342E-3,3.006441E-1,-2.57615E-1,4.3778962E-1,-3.6720566E-2,-3.981964E-1,4.1859437E-2,-3.9311284E-3,3.499151E-2,-1.0022818E-2,-4.295773E-2],"categories":[],"categories_nodes":[],"categories_segments":[],"categories_sizes":[],"default_left":[0,0,0,0,0,0,0,0,0,0,0],"id":54,"left_children":[1,3,5,7,-1,9,-1,-1,-1,-1,-1],"loss_changes":[6.517717E0,5.8596373E0,7.271116E0,4.8014965E0,0E0,3.530748E0,0E0,0E0,0E0,0E0,0E0],"parents":[2147483647,0,0,1,1,2,2,3,3,5,5],"right_children":[2,4,6,8,-1,10,-1,-1,-1,-1,-1],"split_conditions":[-7.9E-1,4.72E1,7.8E-1,4.95E-1,-3.6720566E-2,3.21E1,4.1859437E-2,-3.9311284E-3,3.499151E-2,-1.0022818E-2,-4.295773E-2],"split_indices":[5,1,2,2,0,3,0,0,0,0,0],"split_type":[0,0,0,0,0,0,0,0,0,0,0],"sum_hessian":[8.209065E1,3.80137E1,4.4076958E1,3.4075684E1,3.9380126E0,3.9625072E1,4.4518847E0,1.17060795E1,2.2369604E1,2.8733822E1,1.08912525E1],"tree_param":{"num_deleted":"0","num_feature":"9","num_nodes":"11","size_leaf_vector":"1"}},{"base_weights":[1.4246867E-2,-3.241953E-1,2.0459695E-1,2.5786463E-2,-4.7168452E-1,-4.767972E-1,3.4438646E-1,-3.3307366E-2,4.896484E-3,7.830596E-3,-4.373577E-2,2.61241E-2,-1.4246224E-2],"categories":[],"categories_nodes":[],"categories_segments":[],"categories_sizes":[],"default_left":[0,0,0,0,0,0,0,0,0,0,0,0,0],"id":55,"left_children":[1,3,5,-1,7,9,11,-1,-1,-1,-1,-1,-1],"loss_changes":[5.5924196E0,4.1163464E0,5.45201E0,0E0,3.0689692E0,2.6245465E0,5.3766694E0,0E0,0E0,0E0,0E0,0E0,0E0],"parents":[2147483647,0,0,1,1,2,2,4,4,5,5,6,6],"right_children":[2,4,6,-1,8,10,12,-1,-1,-1,-1,-1,-1],"split_conditions":[6.05E-1,1.1E0,3.22E-1,2.5786463E-2,7.02E-1,-6.36E0,3.42E1,-3.3307366E-2,4.896484E-3,7.830596E-3,-4.373577E-2,2.61241E-2,-1.4246224E-2],"split_indices":[0,8,2,0,2,4,1,0,0,0,0,0,0],"split_type":[0,0,0,0,0,0,0,0,0,0,0,0,0],"sum_hessian":[8.4778885E1,3.026486E1,5.4514027E1,4.1477046E0,2.6117155E1,8.869491E0,4.564454E1,1.9343822E1,6.7733335E0,3.656102E0,5.2133884E0,3.57087E1,9.935838E0],"tree_param":{"num_deleted":"0","num_feature":"9","num_nodes":"13","size_leaf_vector":"1"}},{"base_weights":[-7.032876E-2,-4.4152385E-1,1.3511948E-1,1.9471787E-2,-5.632121E-1,7.146553E-1,-5.914259E-2,-4.2830233E-2,-1.0171231E-2,1.09790405E-2,5.715701E-2,1.5394069E-2,-1.9530622E-2],"categories":[],"categories_nodes":[],"categories_segments":[],"categories_sizes":[],"default_left":[0,0,0,0,0,0,0,0,0,0,0,0,0],"id":56,"left_children":[1,3,5,-1,7,9,11,-1,-1,-1,-1,-1,-1],"loss_changes":[6.357823E0,3.2183437E0,6.113584E0,0E0,2.5997095E0,2.6371799E0,5.1462893E0,0E0,0E0,0E0,0E0,0E0,0E0],"parents":[2147483647,0,0,1,1,2,2,4,4,5,5,6,6],"right_children":[2,4,6,-1,8,10,12,-1,-1,-1,-1,-1,-1],"split_conditions":[6.05E-1,1.5E0,-9.1E0,1.9471787E-2,5.06E-1,5.79E-1,1.4E-1,-4.2830233E-2,-1.0171231E-2,1.09790405E-2,5.715701E-2,1.5394069E-2,-1.9530622E-2],"split_indices":[0,3,4,0,6,2,5,0,0,0,0,0,0],"split_type":[0,0,0,0,0,0,0,0,0,0,0,0,0],"sum_hessian":[8.158655E1,2.8658508E1,5.2928043E1,3.3796918E0,2.5278816E1,1.2615074E1,4.031297E1,1.3163575E1,1.2115241E1,6.5544615E0,6.060613E0,1.9164267E1,2.1148703E1],"tree_param":{"num_deleted":"0","num_feature":"9","num_nodes":"13","size_leaf_vector":"1"}},{"base_weights":[1.42221805E-2,2.5058383E-1,-2.2247006E-1,5.0116307E-1,-2.7325556E-1,1.5394816E-1,-4.422391E-1,4.9383733E-2,-1.1454478E-3,-3.5803463E-2,1.4577731E-2,4.389844E-2,-6.7531564E-3,-3.6900338E-2,-3.005884E-3],"categories":[],"categories_nodes":[],"categories_segments":[],"categories_sizes":[],"default_left":[0,0,0,0,0,0,0,0,0,0,0,0,0,0,0],"id":57,"left_children":[1,3,5,7,9,11,13,-1,-1,-1,-1,-1,-1,-1,-1],"loss_changes":[4.6727715E0,5.618907E0,3.523083E0,7.3153586E0,3.7503867E0,3.4953165E0,2.9650555E0,0E0,0E0,0E0,0E0,0E0,0E0,0E0,0E0],"parents":[2147483647,0,0,1,1,2,2,3,3,4,4,5,5,6,6],"right_children":[2,4,6,8,10,12,14,-1,-1,-1,-1,-1,-1,-1,-1],"split_conditions":[-2.16E0,8.1E0,1.02E1,1.48E1,1.37E1,-6.2E0,5.12E-1,4.9383733E-2,-1.1454478E-3,-3.5803463E-2,1.4577731E-2,4.389844E-2,-6.7531564E-3,-3.6900338E-2,-3.005884E-3],"split_indices":[4,8,3,1,1,5,6,0,0,0,0,0,0,0,0],"split_type":[0,0,0,0,0,0,0,0,0,0,0,0,0,0,0],"sum_hessian":[8.152796E1,4.0763103E1,4.076486E1,2.7602636E1,1.3160468E1,1.5137316E1,2.5627542E1,1.3855525E1,1.374711E1,7.226811E0,5.933657E0,3.7371948E0,1.1400121E1,1.3921081E1,1.1706462E1],"tree_param":{"num_deleted":"0","num_feature":"9","num_nodes":"15","size_leaf_vector":"1"}},{"base_weights":[1.6296092E-2,1.4454229E-1,-5.7369804E-1,-2.0893414E-1,3.498236E-1,-2.0174167E-1,-4.5092102E-2,1.5375847E-3,-4.6275623E-2,3.362965E-2,-5.802439E-3,-3.659874E-2,2.4893882E-2],"categories":[],"categories_nodes":[],"categories_segments":[],"categories_sizes":[],"default_left":[0,0,0,0,0,0,0,0,0,0,0,0,0],"id":58,"left_children":[1,3,5,7,9,11,-1,-1,-1,-1,-1,-1,-1],"loss_changes":[6.1850395E0,4.938071E0,1.6002221E0,4.366603E0,6.5120287E0,3.3810608E0,0E0,0E0,0E0,0E0,0E0,0E0,0E0],"parents":[2147483647,0,0,1,1,2,2,3,3,4,4,5,5],"right_children":[2,4,6,8,10,12,-1,-1,-1,-1,-1,-1,-1],"split_conditions":[6.02E-1,4.95E-1,1.44E1,5.61E0,1.95E1,6.06E-1,-4.5092102E-2,1.5375847E-3,-4.6275623E-2,3.362965E-2,-5.802439E-3,-3.659874E-2,2.4893882E-2],"split_indices":[7,2,3,5,1,2,0,0,0,0,0,0,0],"split_type":[0,0,0,0,0,0,0,0,0,0,0,0,0],"sum_hessian":[7.964701E1,6.6045746E1,1.3601262E1,2.4257927E1,4.178782E1,7.1319184E0,6.469343E0,1.8894917E1,5.363011E0,2.4423094E1,1.7364725E1,4.0307865E0,3.101132E0],"tree_param":{"num_deleted":"0","num_feature":"9","num_nodes":"13","size_leaf_vector":"1"}},{"base_weights":[4.5251884E-2,1.3072065E-1,-6.6410714E-1,7.6686215E-1,-1.0229341E-2,-9.574143E-3,-4.485229E-2,5.765293E-2,1.1666759E-2,-1.5606944E-2,1.7562073E-2],"categories":[],"categories_nodes":[],"categories_segments":[],"categories_sizes":[],"default_left":[0,0,0,0,0,0,0,0,0,0,0],"id":59,"left_children":[1,3,5,7,9,-1,-1,-1,-1,-1,-1],"loss_changes":[5.0884438E0,6.684374E0,8.2296824E-1,2.5165114E0,6.869505E0,0E0,0E0,0E0,0E0,0E0,0E0],"parents":[2147483647,0,0,1,1,2,2,3,3,4,4],"right_children":[2,4,6,8,10,-1,-1,-1,-1,-1,-1],"split_conditions":[7.73E-1,1.5E0,-1.87E0,-1.1E-1,5.06E-1,-9.574143E-3,-4.485229E-2,5.765293E-2,1.1666759E-2,-1.5606944E-2,1.7562073E-2],"split_indices":[7,3,5,5,6,0,0,0,0,0,0],"split_type":[0,0,0,0,0,0,0,0,0,0,0],"sum_hessian":[8.1496994E1,7.346153E1,8.035463E0,1.2519106E1,6.094243E1,3.2544105E0,4.7810526E0,6.5886645E0,5.9304414E0,3.328142E1,2.7661009E1],"tree_param":{"num_deleted":"0","num_feature":"9","num_nodes":"11","size_leaf_vector":"1"}},{"base_weights":[1.7369144E-2,2.4873179E-1,-2.2403637E-1,-1.1131917E-1,6.14881E-1,2.1559489E-1,-4.5722878E-1,3.0133894E-2,-1.4849084E-2,4.1803528E-2,-2.1712204E-2,-4.743649E-3,5.1516928E-2,1.1413952E-2,-3.870779E-2],"categories":[],"categories_nodes":[],"categories_segments":[],"categories_sizes":[],"default_left":[0,0,0,0,0,0,0,0,0,0,0,0,0,0,0],"id":60,"left_children":[1,3,5,7,9,11,13,-1,-1,-1,-1,-1,-1,-1,-1],"loss_changes":[4.7172856E0,5.7493114E0,4.33986E0,3.1713738E0,5.3564634E0,3.8966289E0,6.11925E0,0E0,0E0,0E0,0E0,0E0,0E0,0E0,0E0],"parents":[2147483647,0,0,1,1,2,2,3,3,4,4,5,5,6,6],"right_children":[2,4,6,8,10,12,14,-1,-1,-1,-1,-1,-1,-1,-1],"split_conditions":[-2.16E0,5.82E-1,8.9E0,6.7E-2,4.39E1,5.91E-1,1.27E-1,3.0133894E-2,-1.4849084E-2,4.1803528E-2,-2.1712204E-2,-4.743649E-3,5.1516928E-2,1.1413952E-2,-3.870779E-2],"split_indices":[4,2,3,7,3,6,7,0,0,0,0,0,0,0,0],"split_type":[0,0,0,0,0,0,0,0,0,0,0,0,0,0,0],"sum_hessian":[8.246241E1,4.209157E1,4.0370842E1,2.1573425E1,2.0518147E1,1.4018192E1,2.635265E1,3.988577E0,1.7584848E1,1.7113205E1,3.4049401E0,1.0790064E1,3.2281287E0,8.420012E0,1.7932636E1],"tree_param":{"num_deleted":"0","num_feature":"9","num_nodes":"15","size_leaf_vector":"1"}},{"base_weights":[3.5315715E-2,1.21105164E-1,-6.6445315E-1,2.7073267E-1,-3.5271314E-1,-1.0090585E-2,-4.4691462E-2,4.8317935E-2,8.657884E-3,1.5803104E-2,-3.3668842E-2],"categories":[],"categories_nodes":[],"categories_segments":[],"categories_sizes":[],"default_left":[0,0,0,0,0,0,0,0,0,0,0],"id":61,"left_children":[1,3,5,7,9,-1,-1,-1,-1,-1,-1],"loss_changes":[4.9672666E0,5.296312E0,7.7934885E-1,3.6552863E0,4.081601E0,0E0,0E0,0E0,0E0,0E0,0E0],"parents":[2147483647,0,0,1,1,2,2,3,3,4,4],"right_children":[2,4,6,8,10,-1,-1,-1,-1,-1,-1],"split_conditions":[7.73E-1,3.54E1,-1.87E0,-8.1E0,-3.67E0,-1.0090585E-2,-4.4691462E-2,4.8317935E-2,8.657884E-3,1.5803104E-2,-3.3668842E-2],"split_indices":[7,3,5,1,5,0,0,0,0,0,0],"split_type":[0,0,0,0,0,0,0,0,0,0,0],"sum_hessian":[8.040215E1,7.23582E1,8.043951E0,5.531792E1,1.7040281E1,3.2893357E0,4.7546153E0,5.7096024E0,4.960832E1,5.527174E0,1.1513107E1],"tree_param":{"num_deleted":"0","num_feature":"9","num_nodes":"11","size_leaf_vector":"1"}},{"base_weights":[1.1499955E-2,-6.017471E-2,4.1059356E-2,-7.3925984E-1,7.913666E-2,-1.3118818E-2,-4.5398958E-2,8.445789E-3,-3.2409016E-2],"categories":[],"categories_nodes":[],"categories_segments":[],"categories_sizes":[],"default_left":[0,0,0,0,0,0,0,0,0],"id":62,"left_children":[1,3,-1,5,7,-1,-1,-1,-1],"loss_changes":[4.777347E0,7.2271185E0,0E0,8.0737305E-1,4.274142E0,0E0,0E0,0E0,0E0],"parents":[2147483647,0,0,1,1,3,3,4,4],"right_children":[2,4,-1,6,8,-1,-1,-1,-1],"split_conditions":[7.88E-1,3.04E-1,4.1059356E-2,-5E-1,7.35E-1,-1.3118818E-2,-4.5398958E-2,8.445789E-3,-3.2409016E-2],"split_indices":[0,6,0,1,7,0,0,0,0],"split_type":[0,0,0,0,0,0,0,0,0],"sum_hessian":[8.046823E1,7.477475E1,5.6934857E0,1.1995437E1,6.277931E1,3.802581E0,8.192856E0,5.6564777E1,6.214532E0],"tree_param":{"num_deleted":"0","num_feature":"9","num_nodes":"9","size_leaf_vector":"1"}},{"base_weights":[1.4791267E-2,-2.848149E-1,1.7690434E-1,3.852973E-2,-4.8423734E-1,6.4827514E-1,-1.4439487E-2,-3.1196743E-2,-2.7221225E-3,5.2264184E-2,-1.5960328E-2,1.4342661E-2,-2.5708828E-2],"categories":[],"categories_nodes":[],"categories_segments":[],"categories_sizes":[],"default_left":[0,0,0,0,0,0,0,0,0,0,0,0,0],"id":63,"left_children":[1,3,5,-1,7,9,11,-1,-1,-1,-1,-1,-1],"loss_changes":[3.976148E0,6.4267616E0,4.795477E0,0E0,1.4553652E0,6.226897E0,5.977712E0,0E0,0E0,0E0,0E0,0E0,0E0],"parents":[2147483647,0,0,1,1,2,2,4,4,5,5,6,6],"right_children":[2,4,6,-1,8,10,12,-1,-1,-1,-1,-1,-1],"split_conditions":[6.05E-1,1.1E0,-8.91E0,3.852973E-2,8.7E0,8.5E0,2.34E1,-3.1196743E-2,-2.7221225E-3,5.2264184E-2,-1.5960328E-2,1.4342661E-2,-2.5708828E-2],"split_indices":[0,8,4,0,8,8,1,0,0,0,0,0,0],"split_type":[0,0,0,0,0,0,0,0,0,0,0,0,0],"sum_hessian":[7.982678E1,2.7762028E1,5.206475E1,3.9568639E0,2.3805164E1,1.4343033E1,3.7721718E1,1.7624815E1,6.18035E0,1.0112802E1,4.2302313E0,2.3799147E1,1.3922573E1],"tree_param":{"num_deleted":"0","num_feature":"9","num_nodes":"13","size_leaf_vector":"1"}},{"base_weights":[1.063791E-2,-2.9066095E-1,1.8699242E-1,6.073633E-2,-6.519576E-1,5.484508E-1,-2.0723411E-1,1.8769218E-2,-3.9120287E-2,-8.923882E-3,-4.8161823E-2,1.1339421E-2,4.99481E-2,3.16212E-2,-2.1085842E-2],"categories":[],"categories_nodes":[],"categories_segments":[],"categories_sizes":[],"default_left":[0,0,0,0,0,0,0,0,0,0,0,0,0,0,0],"id":64,"left_children":[1,3,5,7,9,11,13,-1,-1,-1,-1,-1,-1,-1,-1],"loss_changes":[4.45245E0,3.9691668E0,7.640314E0,4.6990314E0,2.0898504E0,3.8062744E0,4.9473968E0,0E0,0E0,0E0,0E0,0E0,0E0,0E0,0E0],"parents":[2147483647,0,0,1,1,2,2,3,3,4,4,5,5,6,6],"right_children":[2,4,6,8,10,12,14,-1,-1,-1,-1,-1,-1,-1,-1],"split_conditions":[4.95E-1,1.47E1,1.5E1,5.61E0,2E-1,6.97E-1,-1.042E1,1.8769218E-2,-3.9120287E-2,-8.923882E-3,-4.8161823E-2,1.1339421E-2,4.99481E-2,3.16212E-2,-2.1085842E-2],"split_indices":[2,3,1,5,7,2,4,0,0,0,0,0,0,0,0],"split_type":[0,0,0,0,0,0,0,0,0,0,0,0,0,0,0],"sum_hessian":[8.177151E1,2.9951569E1,5.181994E1,1.5605523E1,1.43460455E1,2.6829395E1,2.4990543E1,1.176848E1,3.837042E0,6.3145227E0,8.031523E0,1.6530273E1,1.0299121E1,4.688272E0,2.0302273E1],"tree_param":{"num_deleted":"0","num_feature":"9","num_nodes":"15","size_leaf_vector":"1"}},{"base_weights":[-6.4797156E-2,6.277604E-2,-6.7814136E-1,2.0153101E-1,-3.7331358E-1,-4.3301802E-2,-6.986212E-3,2.1772137E-2,-1.6644181E-3,-4.137878E-2,-1.6536188E-3],"categories":[],"categories_nodes":[],"categories_segments":[],"categories_sizes":[],"default_left":[0,0,0,0,0,0,0,0,0,0,0],"id":65,"left_children":[1,3,5,7,9,-1,-1,-1,-1,-1,-1],"loss_changes":[6.2895045E0,4.1297135E0,1.2782407E0,2.8422081E0,2.526599E0,0E0,0E0,0E0,0E0,0E0,0E0],"parents":[2147483647,0,0,1,1,2,2,3,3,4,4],"right_children":[2,4,6,8,10,-1,-1,-1,-1,-1,-1],"split_conditions":[6.02E-1,3.54E1,6.99E-1,-2.16E0,5.57E-1,-4.3301802E-2,-6.986212E-3,2.1772137E-2,-1.6644181E-3,-4.137878E-2,-1.6536188E-3],"split_indices":[7,3,2,4,2,0,0,0,0,0,0],"split_type":[0,0,0,0,0,0,0,0,0,0,0],"sum_hessian":[7.883681E1,6.600556E1,1.2831248E1,5.0481293E1,1.5524266E1,9.060771E0,3.7704782E0,2.4861507E1,2.5619785E1,6.0347905E0,9.489476E0],"tree_param":{"num_deleted":"0","num_feature":"9","num_nodes":"11","size_leaf_vector":"1"}},{"base_weights":[-4.279812E-2,2.6863623E-1,-2.1578197E-1,-3.9524534E-1,4.796414E-1,-1.0213454E-1,-4.724346E-2,-2.0796612E-3,-3.0788882E-2,-2.0192094E-2,3.590452E-2,-2.43045E-2,4.2183087E-3],"categories":[],"categories_nodes":[],"categories_segments":[],"categories_sizes":[],"default_left":[0,0,0,0,0,0,0,0,0,0,0,0,0],"id":66,"left_children":[1,3,5,7,9,11,-1,-1,-1,-1,-1,-1,-1],"loss_changes":[4.433465E0,4.314765E0,4.275985E0,5.71069E-1,5.0926905E0,3.3904815E0,0E0,0E0,0E0,0E0,0E0,0E0,0E0],"parents":[2147483647,0,0,1,1,2,2,3,3,4,4,5,5],"right_children":[2,4,6,8,10,12,-1,-1,-1,-1,-1,-1,-1],"split_conditions":[9.3E0,5.93E-1,4.55E1,4.3E0,2.6E0,3.84E-1,-4.724346E-2,-2.0796612E-3,-3.0788882E-2,-2.0192094E-2,3.590452E-2,-2.43045E-2,4.2183087E-3],"split_indices":[3,0,1,8,8,6,0,0,0,0,0,0,0],"split_type":[0,0,0,0,0,0,0,0,0,0,0,0,0],"sum_hessian":[8.021859E1,2.8448286E1,5.1770298E1,6.650571E0,2.1797716E1,4.5775127E1,5.9951725E0,3.010864E0,3.6397066E0,4.485341E0,1.7312374E1,1.4440206E1,3.133492E1],"tree_param":{"num_deleted":"0","num_feature":"9","num_nodes":"13","size_leaf_vector":"1"}},{"base_weights":[-1.445896E-2,3.6857226E-1,-2.2061482E-1,1.13292575E-1,1.0661993E0,-6.113632E-1,-1.1333074E-2,-2.4126453E-2,1.955048E-2,3.005879E-2,6.535788E-2,-1.848412E-3,-4.7908843E-2,1.7368918E-2,-1.5030898E-2],"categories":[],"categories_nodes":[],"categories_segments":[],"categories_sizes":[],"default_left":[0,0,0,0,0,0,0,0,0,0,0,0,0,0,0],"id":67,"left_children":[1,3,5,7,9,11,13,-1,-1,-1,-1,-1,-1,-1,-1],"loss_changes":[6.378247E0,4.9150314E0,4.283671E0,3.7993066E0,4.966259E-2,3.6062922E0,3.7557151E0,0E0,0E0,0E0,0E0,0E0,0E0,0E0,0E0],"parents":[2147483647,0,0,1,1,2,2,3,3,4,4,5,5,6,6],"right_children":[2,4,6,8,10,12,14,-1,-1,-1,-1,-1,-1,-1,-1],"split_conditions":[3.9E0,3E0,6.9E0,4.35E-1,5.27E-1,8.5E0,8.8E0,-2.4126453E-2,1.955048E-2,3.005879E-2,6.535788E-2,-1.848412E-3,-4.7908843E-2,1.7368918E-2,-1.5030898E-2],"split_indices":[8,8,8,6,2,1,8,0,0,0,0,0,0,0,0],"split_type":[0,0,0,0,0,0,0,0,0,0,0,0,0,0,0],"sum_hessian":[7.874424E1,2.7276854E1,5.1467384E1,2.0820496E1,6.456358E0,1.728097E1,3.4186413E1,6.3848276E0,1.4435668E1,3.3964715E0,3.0598867E0,6.922491E0,1.03584795E1,1.5172184E1,1.9014229E1],"tree_param":{"num_deleted":"0","num_feature":"9","num_nodes":"15","size_leaf_vector":"1"}},{"base_weights":[-4.103929E-3,2.0080014E-1,-3.291564E-1,2.9825556E-1,-3.0180192E-2,-6.953191E-1,1.1862209E-1,6.670829E-3,5.1303428E-2,-5.418309E-3,-4.288229E-2,3.2179907E-2,-1.9719755E-2],"categories":[],"categories_nodes":[],"categories_segments":[],"categories_sizes":[],"default_left":[0,0,0,0,0,0,0,0,0,0,0,0,0],"id":68,"left_children":[1,3,5,7,-1,9,11,-1,-1,-1,-1,-1,-1],"loss_changes":[5.2928414E0,4.002015E0,5.119399E0,5.16044E0,0E0,1.531187E0,4.205935E0,0E0,0E0,0E0,0E0,0E0,0E0],"parents":[2147483647,0,0,1,1,2,2,3,3,5,5,6,6],"right_children":[2,4,6,8,-1,10,12,-1,-1,-1,-1,-1,-1],"split_conditions":[2.46E1,7.73E-1,5.06E-1,7.37E-1,-3.0180192E-2,7.7E-2,2.22E-1,6.670829E-3,5.1303428E-2,-5.418309E-3,-4.288229E-2,3.2179907E-2,-1.9719755E-2],"split_indices":[3,7,6,0,0,7,7,0,0,0,0,0,0],"split_type":[0,0,0,0,0,0,0,0,0,0,0,0,0],"sum_hessian":[7.74743E1,4.775385E1,2.972045E1,4.315477E1,4.5990796E0,1.6046167E1,1.3674282E1,3.615052E1,7.004251E0,3.8375714E0,1.2208596E1,6.6325684E0,7.0417137E0],"tree_param":{"num_deleted":"0","num_feature":"9","num_nodes":"13","size_leaf_vector":"1"}},{"base_weights":[4.668426E-2,1.5477224E-1,-4.7899693E-1,2.7440032E-1,-2.554344E-1,4.8545203E-3,-7.016331E-1,3.7743125E-2,9.369268E-3,6.004712E-3,-3.0452749E-2,-6.1176736E-3,-4.6927966E-2],"categories":[],"categories_nodes":[],"categories_segments":[],"categories_sizes":[],"default_left":[0,0,0,0,0,0,0,0,0,0,0,0,0],"id":69,"left_children":[1,3,5,7,9,-1,11,-1,-1,-1,-1,-1,-1],"loss_changes":[4.5891204E0,3.341505E0,1.8375914E0,2.036524E0,2.140735E0,0E0,1.2675381E0,0E0,0E0,0E0,0E0,0E0,0E0],"parents":[2147483647,0,0,1,1,2,2,3,3,4,4,6,6],"right_children":[2,4,6,8,10,-1,12,-1,-1,-1,-1,-1,-1],"split_conditions":[6.02E-1,3.54E1,3.51E-1,-1.127E1,1.06E1,4.8545203E-3,2.8E0,3.7743125E-2,9.369268E-3,6.004712E-3,-3.0452749E-2,-6.1176736E-3,-4.6927966E-2],"split_indices":[7,3,6,4,1,0,1,0,0,0,0,0,0],"split_type":[0,0,0,0,0,0,0,0,0,0,0,0,0],"sum_hessian":[7.846146E1,6.566526E1,1.279619E1,5.109543E1,1.4569834E1,3.7239926E0,9.072198E0,6.6579247E0,4.4437504E1,7.386307E0,7.1835275E0,3.0736377E0,5.9985595E0],"tree_param":{"num_deleted":"0","num_feature":"9","num_nodes":"13","size_leaf_vector":"1"}},{"base_weights":[3.5942964E-2,2.5082657E-1,-1.8296011E-1,3.4458276E-2,7.203457E-1,3.783454E-1,-3.3366343E-1,-4.802441E-3,4.1438423E-2,-3.8985976E-3,4.9473297E-2,4.3215156E-2,-1.0872688E-2,-3.6275327E-2,-1.4673908E-3],"categories":[],"categories_nodes":[],"categories_segments":[],"categories_sizes":[],"default_left":[0,0,0,0,0,0,0,0,0,0,0,0,0,0,0],"id":70,"left_children":[1,3,5,7,9,11,13,-1,-1,-1,-1,-1,-1,-1,-1],"loss_changes":[3.7702718E0,4.0770483E0,3.492936E0,3.053705E0,2.8028717E0,2.76266E0,3.7834551E0,0E0,0E0,0E0,0E0,0E0,0E0,0E0,0E0],"parents":[2147483647,0,0,1,1,2,2,3,3,4,4,5,5,6,6],"right_children":[2,4,6,8,10,12,14,-1,-1,-1,-1,-1,-1,-1,-1],"split_conditions":[-2.16E0,6.88E-1,-6.12E0,7.7E-1,5.77E-1,1.11E1,4.46E-1,-4.802441E-3,4.1438423E-2,-3.8985976E-3,4.9473297E-2,4.3215156E-2,-1.0872688E-2,-3.6275327E-2,-1.4673908E-3],"split_indices":[4,2,5,0,0,3,6,0,0,0,0,0,0,0,0],"split_type":[0,0,0,0,0,0,0,0,0,0,0,0,0,0,0],"sum_hessian":[7.817698E1,3.937709E1,3.8799885E1,2.7690077E1,1.1687015E1,7.8926396E0,3.0907248E1,2.4537573E1,3.1525044E0,3.1255782E0,8.561437E0,4.098818E0,3.793822E0,1.2905629E1,1.8001617E1],"tree_param":{"num_deleted":"0","num_feature":"9","num_nodes":"15","size_leaf_vector":"1"}},{"base_weights":[-9.312496E-3,-3.0432594E-1,1.5608342E-1,-7.459277E-1,-2.5554728E-2,3.1079465E-1,-4.4902572E-1,-6.312112E-3,-4.7992896E-2,1.8113311E-2,-1.8569535E-2,2.0656878E-2,-3.1149765E-2,-4.088753E-2,9.675565E-3],"categories":[],"categories_nodes":[],"categories_segments":[],"categories_sizes":[],"default_left":[0,0,0,0,0,0,0,0,0,0,0,0,0,0,0],"id":71,"left_children":[1,3,5,7,9,11,13,-1,-1,-1,-1,-1,-1,-1,-1],"loss_changes":[3.9557645E0,3.5649018E0,5.006182E0,1.3676696E0,2.6670673E0,4.2702785E0,2.7629023E0,0E0,0E0,0E0,0E0,0E0,0E0,0E0,0E0],"parents":[2147483647,0,0,1,1,2,2,3,3,4,4,5,5,6,6],"right_children":[2,4,6,8,10,12,14,-1,-1,-1,-1,-1,-1,-1,-1],"split_conditions":[4.95E-1,8.3E0,7.04E0,-5.61E0,1.02E1,5.16E1,5.53E-1,-6.312112E-3,-4.7992896E-2,1.8113311E-2,-1.8569535E-2,2.0656878E-2,-3.1149765E-2,-4.088753E-2,9.675565E-3],"split_indices":[2,1,4,5,3,1,6,0,0,0,0,0,0,0,0],"split_type":[0,0,0,0,0,0,0,0,0,0,0,0,0,0,0],"sum_hessian":[7.9097206E1,2.8112862E1,5.0984344E1,1.0230673E1,1.7882189E1,4.0990486E1,9.993856E0,3.0335598E0,7.197113E0,8.407027E0,9.475162E0,3.744419E1,3.546296E0,6.176648E0,3.8172083E0],"tree_param":{"num_deleted":"0","num_feature":"9","num_nodes":"15","size_leaf_vector":"1"}},{"base_weights":[1.1842835E-2,1.1276217E-1,-4.7767225E-1,1.983451E-1,-4.6375635E-1,2.8384227E-5,-3.9722722E-2,3.9229758E-2,5.266665E-3,-6.813649E-3,-3.1198645E-2],"categories":[],"categories_nodes":[],"categories_segments":[],"categories_sizes":[],"default_left":[0,0,0,0,0,0,0,0,0,0,0],"id":72,"left_children":[1,3,5,7,9,-1,-1,-1,-1,-1,-1],"loss_changes":[3.887479E0,3.3063102E0,2.0388343E0,3.048687E0,3.725108E-1,0E0,0E0,0E0,0E0,0E0,0E0],"parents":[2147483647,0,0,1,1,2,2,3,3,4,4],"right_children":[2,4,6,8,10,-1,-1,-1,-1,-1,-1],"split_conditions":[6.02E-1,4.44E1,6.5E0,-8.1E0,-3.36E0,2.8384227E-5,-3.9722722E-2,3.9229758E-2,5.266665E-3,-6.813649E-3,-3.1198645E-2],"split_indices":[7,3,3,1,5,0,0,0,0,0,0],"split_type":[0,0,0,0,0,0,0,0,0,0,0],"sum_hessian":[7.660114E1,6.414627E1,1.2454868E1,5.6425926E1,7.7203465E0,5.360473E0,7.0943956E0,6.708302E0,4.971762E1,3.1441813E0,4.576165E0],"tree_param":{"num_deleted":"0","num_feature":"9","num_nodes":"11","size_leaf_vector":"1"}},{"base_weights":[1.1687609E-2,-3.12751E-1,1.6055208E-1,-9.927814E-2,-4.824302E-2,4.4626614E-1,-1.6783254E-1,1.3077917E-2,-2.182908E-2,-2.11308E-2,3.0003373E-2,3.8728856E-2,-1.6596E-2],"categories":[],"categories_nodes":[],"categories_segments":[],"categories_sizes":[],"default_left":[0,0,0,0,0,0,0,0,0,0,0,0,0],"id":73,"left_children":[1,3,5,7,-1,9,11,-1,-1,-1,-1,-1,-1],"loss_changes":[3.8316088E0,3.3794522E0,5.172321E0,2.5389652E0,0E0,4.172535E0,4.2782855E0,0E0,0E0,0E0,0E0,0E0,0E0],"parents":[2147483647,0,0,1,1,2,2,3,3,5,5,6,6],"right_children":[2,4,6,8,-1,10,12,-1,-1,-1,-1,-1,-1],"split_conditions":[4.5E-1,5.61E0,1.5E1,1.47E1,-4.824302E-2,5.31E-1,9E-1,1.3077917E-2,-2.182908E-2,-2.11308E-2,3.0003373E-2,3.8728856E-2,-1.6596E-2],"split_indices":[2,5,1,3,0,2,8,0,0,0,0,0,0],"split_type":[0,0,0,0,0,0,0,0,0,0,0,0,0],"sum_hessian":[7.7294014E1,2.3964445E1,5.3329567E1,1.8922323E1,5.0421224E0,2.8325624E1,2.5003944E1,9.250739E0,9.671584E0,3.9970367E0,2.4328587E1,3.1562161E0,2.1847727E1],"tree_param":{"num_deleted":"0","num_feature":"9","num_nodes":"13","size_leaf_vector":"1"}},{"base_weights":[-3.336782E-2,7.445682E-2,-5.910511E-1,-1.864832E-1,2.5619116E-1,5.651958E-3,-4.4094495E-2,2.8560782E-2,-1.6542293E-2,2.5895834E-2,-1.3025822E-2],"categories":[],"categories_nodes":[],"categories_segments":[],"categories_sizes":[],"default_left":[0,0,0,0,0,0,0,0,0,0,0],"id":74,"left_children":[1,3,5,7,9,-1,-1,-1,-1,-1,-1],"loss_changes":[4.755465E0,3.203484E0,2.7221303E0,3.2405818E0,5.496664E0,0E0,0E0,0E0,0E0,0E0,0E0],"parents":[2147483647,0,0,1,1,2,2,3,3,4,4],"right_children":[2,4,6,8,10,-1,-1,-1,-1,-1,-1],"split_conditions":[6.02E-1,5.41E-1,3.51E-1,8E-1,3.23E0,5.651958E-3,-4.4094495E-2,2.8560782E-2,-1.6542293E-2,2.5895834E-2,-1.3025822E-2],"split_indices":[7,2,6,3,4,0,0,0,0,0,0],"split_type":[0,0,0,0,0,0,0,0,0,0,0],"sum_hessian":[7.735192E1,6.554558E1,1.1806346E1,2.6898178E1,3.8647396E1,3.62995E0,8.176395E0,3.8314896E0,2.3066689E1,2.565178E1,1.2995618E1],"tree_param":{"num_deleted":"0","num_feature":"9","num_nodes":"11","size_leaf_vector":"1"}},{"base_weights":[-5.4276418E-2,-1.0543355E-1,4.3006074E-2,1.4214481E-1,-3.8442248E-1,-1.8945454E-2,2.267057E-2,5.4078237E-3,-3.3676226E-2],"categories":[],"categories_nodes":[],"categories_segments":[],"categories_sizes":[],"default_left":[0,0,0,0,0,0,0,0,0],"id":75,"left_children":[1,3,-1,5,7,-1,-1,-1,-1],"loss_changes":[3.755289E0,5.240577E0,0E0,6.741927E0,5.1383357E0,0E0,0E0,0E0,0E0],"parents":[2147483647,0,0,1,1,3,3,4,4],"right_children":[2,4,-1,6,8,-1,-1,-1,-1],"split_conditions":[8.21E-1,1.5E1,4.3006074E-2,5.31E-1,1.71E-1,-1.8945454E-2,2.267057E-2,5.4078237E-3,-3.3676226E-2],"split_indices":[0,1,0,2,7,0,0,0,0],"split_type":[0,0,0,0,0,0,0,0,0],"sum_hessian":[7.7340355E1,7.408053E1,3.2598314E0,3.9509655E1,3.4570873E1,1.4694332E1,2.4815323E1,1.3017401E1,2.1553473E1],"tree_param":{"num_deleted":"0","num_feature":"9","num_nodes":"9","size_leaf_vector":"1"}},{"base_weights":[1.3817977E-2,-1.4335169E-1,3.568702E-1,-2.3140636E-1,3.0238092E-2,-2.6365796E-2,5.377932E-1,-4.233835E-3,-4.1251525E-2,6.0649604E-2,1.54349655E-2],"categories":[],"categories_nodes":[],"categories_segments":[],"categories_sizes":[],"default_left":[0,0,0,0,0,0,0,0,0,0,0],"id":76,"left_children":[1,3,5,7,-1,-1,9,-1,-1,-1,-1],"loss_changes":[4.204964E0,3.6673875E0,4.2016573E0,4.166087E0,0E0,0E0,2.8471956E0,0E0,0E0,0E0,0E0],"parents":[2147483647,0,0,1,1,2,2,3,3,6,6],"right_children":[2,4,6,8,-1,-1,10,-1,-1,-1,-1],"split_conditions":[6.95E-1,6.74E-1,3.39E-1,4.92E-1,3.0238092E-2,-2.6365796E-2,-1.07E1,-4.233835E-3,-4.1251525E-2,6.0649604E-2,1.54349655E-2],"split_indices":[0,6,2,7,0,0,4,0,0,0,0],"split_type":[0,0,0,0,0,0,0,0,0,0,0],"sum_hessian":[7.604018E1,5.2547585E1,2.349259E1,4.763188E1,4.915702E0,3.6653123E0,1.9827278E1,3.910797E1,8.5239105E0,3.935021E0,1.5892257E1],"tree_param":{"num_deleted":"0","num_feature":"9","num_nodes":"11","size_leaf_vector":"1"}},{"base_weights":[-3.3818517E-2,3.2100132E-1,-1.6976841E-1,4.9924992E-2,1.499626E-1,8.60302E-2,-4.4376415E-1,-1.045877E-2,2.2371978E-2,-2.019728E-2,1.37790935E-2,-3.494338E-2,-3.6365935E-3],"categories":[],"categories_nodes":[],"categories_segments":[],"categories_sizes":[],"default_left":[0,0,0,0,0,0,0,0,0,0,0,0,0],"id":77,"left_children":[1,3,5,-1,7,9,11,-1,-1,-1,-1,-1,-1],"loss_changes":[3.7561073E0,2.3535933E0,3.9724665E0,0E0,2.0620654E0,2.8853822E0,2.5298696E0,0E0,0E0,0E0,0E0,0E0,0E0],"parents":[2147483647,0,0,1,1,2,2,4,4,5,5,6,6],"right_children":[2,4,6,-1,8,10,12,-1,-1,-1,-1,-1,-1],"split_conditions":[-4.7E0,-1.02E1,-1.55E0,4.9924992E-2,1E-2,5.74E-1,5.18E-1,-1.045877E-2,2.2371978E-2,-2.019728E-2,1.37790935E-2,-3.494338E-2,-3.6365935E-3],"split_indices":[5,4,4,0,4,0,6,0,0,0,0,0,0],"split_type":[0,0,0,0,0,0,0,0,0,0,0,0,0],"sum_hessian":[7.573686E1,2.0603077E1,5.5133785E1,3.1777782E0,1.7425299E1,2.8868536E1,2.6265247E1,8.028947E0,9.396353E0,7.7372665E0,2.113127E1,1.5040541E1,1.1224707E1],"tree_param":{"num_deleted":"0","num_feature":"9","num_nodes":"13","size_leaf_vector":"1"}},{"base_weights":[2.4439478E-3,-5.0492946E-2,4.3345857E-2,4.7848538E-2,-5.882349E-1,-9.255088E-3,1.4834598E-2,-9.115052E-3,-4.550751E-2],"categories":[],"categories_nodes":[],"categories_segments":[],"categories_sizes":[],"default_left":[0,0,0,0,0,0,0,0,0],"id":78,"left_children":[1,3,-1,5,7,-1,-1,-1,-1],"loss_changes":[3.5410657E0,3.886326E0,0E0,3.6838968E0,1.3178883E0,0E0,0E0,0E0,0E0],"parents":[2147483647,0,0,1,1,3,3,4,4],"right_children":[2,4,-1,6,8,-1,-1,-1,-1],"split_conditions":[8.21E-1,6.02E-1,4.3345857E-2,5.06E-1,4.55E-1,-9.255088E-3,1.4834598E-2,-9.115052E-3,-4.550751E-2],"split_indices":[0,7,0,6,6,0,0,0,0],"split_type":[0,0,0,0,0,0,0,0,0],"sum_hessian":[7.542264E1,7.195782E1,3.4648187E0,6.1602974E1,1.0354844E1,3.1949848E1,2.9653124E1,5.272519E0,5.0823245E0],"tree_param":{"num_deleted":"0","num_feature":"9","num_nodes":"9","size_leaf_vector":"1"}},{"base_weights":[-3.6908578E-2,3.6267847E-2,-6.423067E-1,-4.75993E-1,1.2931316E-1,-4.3541517E-2,-8.7216E-3,-6.5620616E-3,-4.448288E-2,-9.009899E-3,1.48803E-2],"categories":[],"categories_nodes":[],"categories_segments":[],"categories_sizes":[],"default_left":[0,0,0,0,0,0,0,0,0,0,0],"id":79,"left_children":[1,3,5,7,9,-1,-1,-1,-1,-1,-1],"loss_changes":[3.4787545E0,3.4234946E0,7.5316215E-1,1.4599538E0,3.2038882E0,0E0,0E0,0E0,0E0,0E0,0E0],"parents":[2147483647,0,0,1,1,2,2,3,3,4,4],"right_children":[2,4,6,8,10,-1,-1,-1,-1,-1,-1],"split_conditions":[7.21E-1,3.04E-1,6.69E-1,5.95E-1,6.05E-1,-4.3541517E-2,-8.7216E-3,-6.5620616E-3,-4.448288E-2,-9.009899E-3,1.48803E-2],"split_indices":[7,6,2,2,0,0,0,0,0,0,0],"split_type":[0,0,0,0,0,0,0,0,0,0,0],"sum_hessian":[7.699981E1,6.953499E1,7.464826E0,1.0055997E1,5.947899E1,4.4366093E0,3.0282166E0,6.203341E0,3.852656E0,2.0924862E1,3.8554127E1],"tree_param":{"num_deleted":"0","num_feature":"9","num_nodes":"11","size_leaf_vector":"1"}},{"base_weights":[1.669963E-2,9.75441E-2,-5.5496496E-1,2.831883E-1,-1.4230965E-1,-3.6951568E-2,-6.646868E-3,-9.709869E-3,2.8559996E-2,1.6613608E-2,-2.1124098E-2],"categories":[],"categories_nodes":[],"categories_segments":[],"categories_sizes":[],"default_left":[0,0,0,0,0,0,0,0,0,0,0],"id":80,"left_children":[1,3,5,7,9,-1,-1,-1,-1,-1,-1],"loss_changes":[3.582445E0,3.0563993E0,6.4814234E-1,5.4067497E0,4.1583786E0,0E0,0E0,0E0,0E0,0E0,0E0],"parents":[2147483647,0,0,1,1,2,2,3,3,4,4],"right_children":[2,4,6,8,10,-1,-1,-1,-1,-1,-1],"split_conditions":[4.44E1,1.82E1,6.84E-1,5.31E-1,1.63E-1,-3.6951568E-2,-6.646868E-3,-9.709869E-3,2.8559996E-2,1.6613608E-2,-2.1124098E-2],"split_indices":[3,1,2,2,7,0,0,0,0,0,0],"split_type":[0,0,0,0,0,0,0,0,0,0,0],"sum_hessian":[7.534406E1,6.67357E1,8.608355E0,3.751716E1,2.9218548E1,5.4710326E0,3.1373222E0,1.4239912E1,2.3277246E1,1.0777188E1,1.8441359E1],"tree_param":{"num_deleted":"0","num_feature":"9","num_nodes":"11","size_leaf_vector":"1"}},{"base_weights":[-4.6284557E-3,-3.2946986E-1,1.7269751E-1,2.3094619E-2,-4.7570124E-1,4.9570993E-2,7.776064E-2,-9.439474E-3,-4.0543612E-2,-3.6232304E-2,8.795535E-3],"categories":[],"categories_nodes":[],"categories_segments":[],"categories_sizes":[],"default_left":[0,0,0,0,0,0,0,0,0,0,0],"id":81,"left_children":[1,3,5,-1,7,-1,9,-1,-1,-1,-1],"loss_changes":[4.3535624E0,3.3076065E0,3.7243414E0,0E0,2.0601006E0,0E0,3.6644769E0,0E0,0E0,0E0,0E0],"parents":[2147483647,0,0,1,1,2,2,4,4,6,6],"right_children":[2,4,6,-1,8,-1,10,-1,-1,-1,-1],"split_conditions":[6.05E-1,1.1E0,6.14E-1,2.3094619E-2,-8.6E-1,4.9570993E-2,2.56E-1,-9.439474E-3,-4.0543612E-2,-3.6232304E-2,8.795535E-3],"split_indices":[0,8,0,0,4,0,6,0,0,0,0],"split_type":[0,0,0,0,0,0,0,0,0,0,0],"sum_hessian":[7.35912E1,2.5683641E1,4.790756E1,3.6690664E0,2.2014576E1,3.9967976E0,4.3910763E1,1.2703466E1,9.31111E0,4.0900784E0,3.9820683E1],"tree_param":{"num_deleted":"0","num_feature":"9","num_nodes":"11","size_leaf_vector":"1"}},{"base_weights":[1.1981144E-3,2.9583585E-1,-1.5543088E-1,5.038584E-1,-2.1736298E-2,2.289907E-1,-3.2949975E-1,-1.01100905E-2,3.543543E-2,2.5431791E-2,-2.3754915E-2,-3.9094277E-2,-5.1594963E-3],"categories":[],"categories_nodes":[],"categories_segments":[],"categories_sizes":[],"default_left":[0,0,0,0,0,0,0,0,0,0,0,0,0],"id":82,"left_children":[1,3,5,7,-1,9,11,-1,-1,-1,-1,-1,-1],"loss_changes":[3.5851226E0,4.316617E0,3.4699101E0,3.2457333E0,0E0,3.4708352E0,3.5360456E0,0E0,0E0,0E0,0E0,0E0,0E0],"parents":[2147483647,0,0,1,1,2,2,3,3,5,5,6,6],"right_children":[2,4,6,8,-1,10,12,-1,-1,-1,-1,-1,-1],"split_conditions":[3.8E0,7.54E0,1.42E-1,3.93E-1,-2.1736298E-2,2.34E1,6.9E0,-1.01100905E-2,3.543543E-2,2.5431791E-2,-2.3754915E-2,-3.9094277E-2,-5.1594963E-3],"split_indices":[8,4,7,6,0,1,8,0,0,0,0,0,0],"split_type":[0,0,0,0,0,0,0,0,0,0,0,0,0],"sum_hessian":[7.568975E1,2.5962479E1,4.9727272E1,2.0449839E1,5.512639E0,1.5400528E1,3.432674E1,4.6017733E0,1.5848065E1,1.122132E1,4.179208E0,1.0627598E1,2.3699144E1],"tree_param":{"num_deleted":"0","num_feature":"9","num_nodes":"13","size_leaf_vector":"1"}},{"base_weights":[2.7526572E-2,-2.2860486E-2,4.5203846E-2,-3.0244544E-1,1.3625295E-1,-5.339963E-3,-4.1925516E-2,2.1793831E-2,-1.2111741E-2],"categories":[],"categories_nodes":[],"categories_segments":[],"categories_sizes":[],"default_left":[0,0,0,0,0,0,0,0,0],"id":83,"left_children":[1,3,-1,5,7,-1,-1,-1,-1],"loss_changes":[3.3871484E0,3.291069E0,0E0,2.7219257E0,5.4635944E0,0E0,0E0,0E0,0E0],"parents":[2147483647,0,0,1,1,3,3,4,4],"right_children":[2,4,-1,6,8,-1,-1,-1,-1],"split_conditions":[8.21E-1,4.95E-1,4.5203846E-2,5.61E0,1.5E1,-5.339963E-3,-4.1925516E-2,2.1793831E-2,-1.2111741E-2],"split_indices":[0,2,0,5,1,0,0,0,0],"split_type":[0,0,0,0,0,0,0,0,0],"sum_hessian":[7.5221985E1,7.2054E1,3.167986E0,2.5806858E1,4.6247143E1,1.978515E1,6.021707E0,2.5728203E1,2.0518938E1],"tree_param":{"num_deleted":"0","num_feature":"9","num_nodes":"9","size_leaf_vector":"1"}},{"base_weights":[5.9339767E-3,-4.588993E-2,4.6029642E-2,2.49141E-2,-6.673961E-1,3.2170292E-2,-2.128212E-3,-1.595992E-2,-4.1555356E-2],"categories":[],"categories_nodes":[],"categories_segments":[],"categories_sizes":[],"default_left":[0,0,0,0,0,0,0,0,0],"id":84,"left_children":[1,3,-1,5,7,-1,-1,-1,-1],"loss_changes":[3.6236105E0,3.2050436E0,0E0,2.782273E0,1.5917158E-1,0E0,0E0,0E0,0E0],"parents":[2147483647,0,0,1,1,3,3,4,4],"right_children":[2,4,-1,6,8,-1,-1,-1,-1],"split_conditions":[8.21E-1,7.35E-1,4.6029642E-2,-1.5E0,5.8E0,3.2170292E-2,-2.128212E-3,-1.595992E-2,-4.1555356E-2],"split_indices":[0,7,0,3,1,0,0,0,0],"split_type":[0,0,0,0,0,0,0,0,0],"sum_hessian":[7.455432E1,7.145553E1,3.09879E0,6.500936E1,6.446167E0,5.55534E0,5.9454025E1,3.0048666E0,3.4413004E0],"tree_param":{"num_deleted":"0","num_feature":"9","num_nodes":"9","size_leaf_vector":"1"}},{"base_weights":[4.825581E-2,4.004608E-1,-8.458837E-2,4.9222507E-2,5.5910897E-2,5.0710842E-2,-5.454394E-1,2.3807578E-2,-1.5486027E-2,6.7019835E-3,-2.8288305E-2,-3.9375216E-2,7.6274513E-3],"categories":[],"categories_nodes":[],"categories_segments":[],"categories_sizes":[],"default_left":[0,0,0,0,0,0,0,0,0,0,0,0,0],"id":85,"left_children":[1,3,5,7,-1,9,11,-1,-1,-1,-1,-1,-1],"loss_changes":[3.471994E0,5.062556E0,3.406105E0,2.3964424E0,0E0,2.2745173E0,2.2121952E0,0E0,0E0,0E0,0E0,0E0,0E0],"parents":[2147483647,0,0,1,1,2,2,3,3,5,5,6,6],"right_children":[2,4,6,8,-1,10,12,-1,-1,-1,-1,-1,-1],"split_conditions":[-4.7E0,5.64E-1,3.54E1,1.77E1,5.5910897E-2,7.73E-1,7.25E-1,2.3807578E-2,-1.5486027E-2,6.7019835E-3,-2.8288305E-2,-3.9375216E-2,7.6274513E-3],"split_indices":[5,6,3,3,0,7,2,0,0,0,0,0,0],"split_type":[0,0,0,0,0,0,0,0,0,0,0,0,0],"sum_hessian":[7.2482315E1,1.9299562E1,5.3182755E1,1.367581E1,5.6237526E0,4.180065E1,1.1382105E1,6.0972114E0,7.578599E0,3.7512657E1,4.287992E0,8.355974E0,3.0261302E0],"tree_param":{"num_deleted":"0","num_feature":"9","num_nodes":"13","size_leaf_vector":"1"}},{"base_weights":[2.2145024E-2,4.5344314E-1,-8.367831E-2,5.2496452E-2,2.229135E-1,2.673948E-1,-2.2139792E-1,-1.5214405E-2,2.2034673E-2,3.5075836E-3,4.7176845E-2,7.670045E-3,-2.1015419E-2],"categories":[],"categories_nodes":[],"categories_segments":[],"categories_sizes":[],"default_left":[0,0,0,0,0,0,0,0,0,0,0,0,0],"id":86,"left_children":[1,3,5,-1,7,9,11,-1,-1,-1,-1,-1,-1],"loss_changes":[3.5598435E0,1.8778973E0,3.095843E0,0E0,1.5517088E0,2.3542123E0,3.4682755E0,0E0,0E0,0E0,0E0,0E0,0E0],"parents":[2147483647,0,0,1,1,2,2,4,4,5,5,6,6],"right_children":[2,4,6,-1,8,10,12,-1,-1,-1,-1,-1,-1],"split_conditions":[8.3E-2,1.8E0,4.2E0,5.2496452E-2,6.12E-1,7.7E-1,3.8E0,-1.5214405E-2,2.2034673E-2,3.5075836E-3,4.7176845E-2,7.670045E-3,-2.1015419E-2],"split_indices":[7,8,3,0,0,0,8,0,0,0,0,0,0],"split_type":[0,0,0,0,0,0,0,0,0,0,0,0,0],"sum_hessian":[7.616459E1,1.435871E1,6.1805878E1,3.0116827E0,1.1347027E1,1.7148794E1,4.465708E1,3.2009478E0,8.146079E0,1.4130438E1,3.0183568E0,1.5562359E1,2.9094723E1],"tree_param":{"num_deleted":"0","num_feature":"9","num_nodes":"13","size_leaf_vector":"1"}},{"base_weights":[3.6555298E-2,1.0781424E-1,-4.7642976E-1,-4.6558946E-2,4.5472258E-1,1.3652234E-2,-4.6422668E-2,1.4259924E-2,-1.2941307E-2,-2.4362084E-2,3.2191977E-2],"categories":[],"categories_nodes":[],"categories_segments":[],"categories_sizes":[],"default_left":[0,0,0,0,0,0,0,0,0,0,0],"id":87,"left_children":[1,3,5,7,9,-1,-1,-1,-1,-1,-1],"loss_changes":[2.8217156E0,3.6284308E0,3.447534E0,3.4203684E0,4.0255175E0,0E0,0E0,0E0,0E0,0E0,0E0],"parents":[2147483647,0,0,1,1,2,2,3,3,4,4],"right_children":[2,4,6,8,10,-1,-1,-1,-1,-1,-1],"split_conditions":[4.72E1,6.95E-1,7E0,4.3E0,3.43E-1,1.3652234E-2,-4.6422668E-2,1.4259924E-2,-1.2941307E-2,-2.4362084E-2,3.2191977E-2],"split_indices":[1,0,3,8,2,0,0,0,0,0,0],"split_type":[0,0,0,0,0,0,0,0,0,0,0],"sum_hessian":[7.478627E1,6.6358246E1,8.428019E0,4.652192E1,1.9836329E1,3.3197238E0,5.1082945E0,1.8017836E1,2.8504086E1,3.0530624E0,1.6783266E1],"tree_param":{"num_deleted":"0","num_feature":"9","num_nodes":"11","size_leaf_vector":"1"}},{"base_weights":[-3.5468563E-2,2.8347984E-1,-1.8535806E-1,5.045126E-2,1.04839966E-1,-8.857806E-2,-4.0055875E-2,2.2323284E-2,-1.47440685E-2,1.1584663E-2,-1.4632585E-2],"categories":[],"categories_nodes":[],"categories_segments":[],"categories_sizes":[],"default_left":[0,0,0,0,0,0,0,0,0,0,0],"id":88,"left_children":[1,3,5,-1,7,9,-1,-1,-1,-1,-1],"loss_changes":[3.5915282E0,3.0129123E0,2.9661767E0,0E0,2.9206505E0,3.0198474E0,0E0,0E0,0E0,0E0,0E0],"parents":[2147483647,0,0,1,1,2,2,4,4,5,5],"right_children":[2,4,6,-1,8,10,-1,-1,-1,-1,-1],"split_conditions":[7E0,-1.171E1,4.55E1,5.045126E-2,3.5E-1,4.3E0,-4.0055875E-2,2.2323284E-2,-1.47440685E-2,1.1584663E-2,-1.4632585E-2],"split_indices":[3,4,1,0,7,8,0,0,0,0,0],"split_type":[0,0,0,0,0,0,0,0,0,0,0],"sum_hessian":[7.3026436E1,2.3061928E1,4.996451E1,3.6379654E0,1.9423962E1,4.4166615E1,5.797894E0,1.04100065E1,9.013955E0,1.7136854E1,2.7029762E1],"tree_param":{"num_deleted":"0","num_feature":"9","num_nodes":"11","size_leaf_vector":"1"}},{"base_weights":[2.7361268E-2,-3.686053E-2,3.7765693E-2,-3.9506953E-2,4.054822E-2,1.2724406E-2,-9.565482E-3],"categories":[],"categories_nodes":[],"categories_segments":[],"categories_sizes":[],"default_left":[0,0,0,0,0,0,0],"id":89,"left_children":[1,3,-1,-1,5,-1,-1],"loss_changes":[3.5245624E0,4.095411E0,0E0,0E0,3.2303998E0,0E0,0E0],"parents":[2147483647,0,0,1,1,4,4],"right_children":[2,4,-1,-1,6,-1,-1],"split_conditions":[7.88E-1,2.59E-1,3.7765693E-2,-3.9506953E-2,1.5E1,1.2724406E-2,-9.565482E-3],"split_indices":[0,6,0,0,1,0,0],"split_type":[0,0,0,0,0,0,0],"sum_hessian":[7.3795494E1,6.868527E1,5.1102223E0,5.542532E0,6.314274E1,3.2789555E1,3.0353186E1],"tree_param":{"num_deleted":"0","num_feature":"9","num_nodes":"7","size_leaf_vector":"1"}},{"base_weights":[2.044631E-2,-3.9949477E-2,3.1992417E-2,-1.8985657E-1,2.8872964E-1,-3.2391597E-3,-3.0553013E-2,5.1862758E-2,6.933102E-4],"categories":[],"categories_nodes":[],"categories_segments":[],"categories_sizes":[],"default_left":[0,0,0,0,0,0,0,0,0],"id":90,"left_children":[1,3,-1,5,7,-1,-1,-1,-1],"loss_changes":[2.8001368E0,3.4308875E0,0E0,2.4712515E0,4.482968E0,0E0,0E0,0E0,0E0],"parents":[2147483647,0,0,1,1,3,3,4,4],"right_children":[2,4,-1,6,8,-1,-1,-1,-1],"split_conditions":[7.88E-1,5.71E-1,3.1992417E-2,7.04E0,-5.3E0,-3.2391597E-3,-3.0553013E-2,5.1862758E-2,6.933102E-4],"split_indices":[0,6,0,4,5,0,0,0,0],"split_type":[0,0,0,0,0,0,0,0,0],"sum_hessian":[7.316811E1,6.751997E1,5.64814E0,4.6660828E1,2.0859148E1,3.6867188E1,9.793638E0,4.8574157E0,1.6001732E1],"tree_param":{"num_deleted":"0","num_feature":"9","num_nodes":"9","size_leaf_vector":"1"}},